Message,0,1,2,3,4,5,6,7,8,9,10,11,12,13,14,15,16,17,18,19,20,21,22,23,24,25,26,27,28,29,30,31,32,33,34,35,36,37,38,39,40,41,42,43,44,45,46,47,48,49,50,51,52,53,54,55,56,57,58,59,60,61,62,63,64,65,66,67,68,69,70,71,72,73,74,75,76,77,78,79,80,81,82,83,84,85,86,87,88,89,90,91,92,93,94,95,96,97,98,99,100,101,102,103,104,105,106,107,108,109,110,111,112,113,114,115,116,117,118,119,120,121,122,123,124,125,126,127,128,129,130,131,132,133,134,135,136,137,138,139,140,141,142,143,144,145,146,147,148,149,150,151,152,153,154,155,156,157,158,159,160,161,162,163,164,165,166,167,168,169,170,171,172,173,174,175,176,177,178,179,180,181,182,183,184,185,186,187,188,189,190,191,192,193,194,195,196,197,198,199,200,201,202,203,204,205,206,207,208,209,210,211,212,213,214,215,216,217,218,219,220,221,222,223,224,225,226,227,228,229,230,231,232,233,234,235,236,237,238,239,240,241,242,243,244,245,246,247,248,249,250,251,252,253,254,255,256,257,258,259,260,261,262,263,264,265,266,267,268,269,270,271,272,273,274,275,276,277,278,279,280,281,282,283,284,285,286,287,288,289,290,291,292,293,294,295,296,297,298,299
Congratulations!,-1.910779,3.1425473999999998,1.4979961000000002,-0.3594303,1.910739,-1.9980451000000001,0.8318506999999999,-1.4454645000000002,-1.4745468000000002,1.3099108,0.21673612,-1.2996988,0.50738055,1.1198947,2.046423,0.18589129,1.3027316,2.1119604,1.7536691000000002,-0.05261882,2.1009132999999998,1.9512397000000001,2.1987982,-0.13996874,2.1899523999999997,-1.6322596999999999,-1.2760133999999999,-0.09640048400000001,-0.520861,-0.5905315,1.4454831,-1.7726896,1.3677001,0.40192232,2.07212,1.1504246,1.3991637,1.0295416,1.7040298999999999,0.15448272,-0.10725059,-2.1618617,0.99697614,1.1343443000000002,-1.2160286,-1.412695,-0.7850180999999999,-1.2181026000000001,-0.56189024,1.2245532,0.38803459999999995,0.5624395000000001,0.21761513,1.6362921000000001,-2.3579698,2.1206273999999996,-1.4009018999999998,-0.9480023000000001,-1.2126271999999998,-0.28059068,-2.6961524,-0.46542418,-0.49880424,-0.114739835,0.86532706,1.9049052,0.8407743000000001,-0.26409309999999997,-0.8079522,1.6658336999999999,0.37636146,-2.1873865,0.5237702999999999,0.8722700000000001,0.92697877,-0.4814504,2.4631276,-0.58201987,0.47534046,1.0327562,0.7234674,0.3751933,-0.50885135,-1.2093978,-0.32993466,-1.5234011,-0.5526789000000001,0.17035653,-0.24143583,1.1732619,0.4051955,-2.4239752,-1.4147043,2.2303037999999997,-1.257298,1.8824162,-2.0981965,0.22266081,-0.4193808,-0.17633174,-2.5866783,-1.8882642,-0.7216816,-0.6220193,0.53077614,-1.8723302,-0.46956807,-0.30195883,0.9274556999999999,0.28397682,1.9589415000000001,0.19316545,-0.027421832,1.0823586,-0.9565985999999999,-1.289336,1.3137273,0.22504689,1.0649916000000001,0.9229377000000001,0.03868172,0.43141809999999997,0.8153103,-1.7320375,0.29071882,-0.30031773,2.7317777000000003,-0.5466033,1.2939051000000001,0.40690976,1.1419675,0.62609434,0.696121,0.00615208,-0.41306975,1.844941,-1.854254,-0.81667626,-0.22917379999999998,0.36623582,-0.8451508,-0.41634294,-1.5915972,-2.0105674,-0.74490273,1.9163578999999997,-0.5662259,-0.70124525,0.38813367,-0.29458606,-0.34318346,2.3392467,0.7843329000000001,1.3023881000000002,1.752346,0.015573759,2.4107568,-0.36065316,0.49763,-2.3157202999999997,-0.9207360000000001,-0.07379207,-0.047276184000000006,0.0416134,1.7555140999999999,-1.545197,-0.08306964,-2.2565873,-1.3146111,2.1828194,1.0500858999999998,1.0534371999999999,0.24524713,-0.7520975999999999,-0.12913471,0.13350813,-0.23701677,0.26331425,-0.36372533,-1.4854293,-2.526408,-0.33024928,0.79639375,1.1810018,0.46004880000000004,-0.4694925999999999,1.0043883,-1.0373844,-0.5279854,0.79165363,-0.90414894,1.7512087,-0.43547285,0.68941957,0.23321973,-0.25946778,0.72607285,1.8793061999999998,1.3538165,-2.2194567000000003,-0.21299770000000004,1.1780125,1.1215168,0.12271069999999999,-1.5409999,-1.6692101000000001,-0.2577415,-1.1812996999999998,-2.1682918,0.3616006,-0.2221755,-1.0226201,-1.2865735,-0.6144644,2.3333703999999997,1.8941967,-0.25287843,1.6466290000000001,2.1108224,-0.55154973,-0.8129541,0.33750959999999997,-0.42523869999999997,1.8096039000000002,-1.3305774,0.2178446,-0.7341694000000001,-1.6396929,0.54002815,0.34746674,1.1036907,-1.6226101000000002,0.88889027,0.86106557,0.1335547,-1.7944659,0.06617496,-2.4763154999999997,-0.98879933,1.9026973999999999,-0.34544292,-1.4964496,-1.5024866000000001,1.5623757,-1.090881,-0.009384726,2.8139036,-0.732755,1.1897591,-0.29372174,-0.2990388,0.27760267,1.1274098,1.7034516,-1.144513,1.3485905,0.612371,0.9876872,-3.1407137,-2.3177333,0.6827976,3.5343866000000004,-0.6842301,0.28678757,1.5307393,0.7291875,-1.0754248,-0.23504806,0.13858469,-1.1876704,-4.009142,0.28210697,-0.28929287,0.4105962,1.9360703000000001,-0.42453226,-0.98347557,-0.11559093,-3.1356907000000005,1.9458048,1.1853669,-0.7038561,-2.3950775,-0.7841005999999999,-0.15431982,0.22674407,0.8353301,2.1938534,0.9766396999999999,1.0853008999999998,-0.8724519000000001,-0.36955836,-2.3400197,-1.5666385,-1.68108,-0.8953834,1.5898159,-0.30189565,0.614337,0.95417607
Thank you for your comment. I am wondering how this would work in production when you have unseen test data. ,0.35286645226315777,0.6441467722631579,0.21407965368421059,-0.8459729965789473,0.4084682184210527,0.35792331557894735,0.08292531368421055,0.6843058809736842,-0.44930261315789477,-0.3276641921052631,-1.271391361894737,0.41692542942105265,-0.05752587699999999,-0.501458503631579,1.3089182153684213,-0.5233705933684212,-1.3145633898947366,0.5532562630526315,-0.15633257836842102,0.08339274800000003,-0.6115279673684211,-1.2276388847368422,1.2299996692105264,0.814865527368421,-0.8300255032631579,0.9969228905263159,-0.36262212894736834,-0.3804467210526316,0.028442678421052643,-0.09601381894736838,-0.45035628842105274,0.7197581934736842,-0.25149215315789475,-0.6982524742105263,-0.704230732631579,0.7085664502631579,0.42973433431578956,0.739689598736842,-0.3230615068421052,1.070900747894737,-0.1535562607368421,-0.0880901181578948,-0.25412842278947373,0.39824501736842105,-0.2386495178947369,0.28752494157894737,1.0455526684210523,-1.6226670368421054,0.23127889210526323,0.028417008263157895,0.4304832894736843,-0.4132108247368421,0.2524293830526316,1.1464522278947369,-0.20977453021052628,-0.38945377257894725,0.05346028394736844,0.9089240622536843,0.04631453815789475,-0.2816976888421052,-0.788848357105263,-1.0144679021052632,-0.17527913773684212,0.7379748078947368,-0.24978803842105263,-1.2156616915789473,-0.038353274421052616,-0.428720284368421,0.8093562084210528,-1.162210249894737,0.2928747914210526,-0.2536113942105263,-0.3785017448947369,-0.20916610578947367,-0.46332427,0.1673413813157895,-0.4750676050526318,0.6920487198947368,-0.3072767468421052,-0.2858802288578948,-0.8361451203157896,0.7961913491578949,1.0380555637368423,0.6024847736052632,0.5165728021052631,0.16357581952631578,-0.24252207578947363,0.8950530647368422,0.7073473968421053,0.17869217826315792,-0.017895107631578987,-0.8521854663157896,-0.19690418263157894,-1.1664825906315786,0.4424288516842105,0.9399829368421052,0.34880134484210534,0.8592198115789474,0.1522878021052632,0.9141527636842106,1.1757271310526316,0.5464407303894737,-0.6130124286842105,-0.11665982399999997,-0.6179278694736843,1.6573270289473687,0.3810161621052631,0.42474112157894733,-0.08040302452631576,-0.08509518684210522,-0.35930105415789465,-0.25872189742105256,0.464437419736842,-0.9826354421052631,0.6042827003157895,0.5992403052105263,-0.6215208692105264,0.17972173436842107,-0.42989191368421054,-0.3793251336842105,0.5185027350526316,0.28681384526315784,-0.9809020705263156,-0.19803189194736842,-0.0045489280526316055,-0.19117687473684206,0.0594454424210526,0.2169446981052631,0.058302168421052604,-0.4662971381578947,-0.8936198231578947,-0.001219102510526295,-0.663036835736842,-0.5093323949473685,0.41218496263157894,0.17357290068421047,-0.1873336410526316,-0.5815282410526317,1.212263274736842,0.36757503442105266,1.1786477089473686,0.18777726584210525,-0.016322967157894774,-1.7202839367368423,-0.966399544473684,-0.6302843876315789,0.15292590742105266,0.7974298699999999,-0.1375374552631579,0.2120171094736842,0.2031092168421053,0.39801230784210534,-0.46472888299999976,0.21150957915789476,-0.1563222607894737,-0.3049082242105263,0.11336774315789469,0.9786970126315788,0.7216264078947368,-0.11906507189473685,0.9021849621052631,0.7268966271578948,-0.3660818358947369,0.20281158447368425,0.26825839105263155,1.0672054699999998,0.16520427457894735,0.28877198431578943,0.05539231105263155,0.699011392631579,0.4252400892631579,-0.7655357152631578,0.9304128591578948,0.09651531105263161,0.047572662210526334,1.0598129131578946,0.6190974264736842,-0.24951867078947373,0.7787347747368422,-0.8992258273157895,-0.46627464999999985,0.23710812421052632,-0.48992122184210524,-0.2931544163157895,-0.28848470736842097,-0.8020968957894736,0.42723837789473695,0.6443084563157896,0.22205401026315788,-0.8580793644736843,0.39714213157894745,0.04559820052631579,-0.17977035515789477,0.1724812273684211,1.822010353157895,0.816157459368421,-0.17196556352631578,-0.6593715408947368,0.5709843031842106,-1.2929157421052633,-0.6097499968421053,-1.3549131772105263,-0.4538345815789473,-0.6777934210157895,0.9596349444736842,0.053062248421052643,-0.9382492389473684,0.3284263410526315,0.37085960473684215,-0.051192060947368445,0.2772904242105263,0.03616714105263147,-0.626622952631579,-1.1318685115789473,-0.09786825631578949,0.2461779492631579,0.14734540394736842,-0.33509643947368417,-0.17982517684210525,-0.13626181547368424,0.3051621162473683,0.6714683152631579,0.08498621613157897,-0.6412522749999999,-1.3737737810526318,0.0983771889473684,-0.23355676752631577,-0.5952800455263159,0.030566890894736895,-0.8471511209473686,-0.4412073707894737,-0.7234144052631578,-1.2841055410526316,-0.6214683578947368,-0.6258997726315788,-0.6503655107894736,0.17760350554210524,0.45970224789473685,-0.7320243289473682,0.7008869336842105,0.4459998559473686,0.7088425573684211,0.6875590204210527,0.7832906686842105,-0.014768986842105258,-0.3330637743684211,-0.19319715103157895,-0.8158221234736842,-0.8548348107368422,0.06717905789473691,0.3452299374736842,-0.034931734421052636,1.073011043157895,0.621637052631579,0.23697424931578945,-0.487500406631579,0.8664654026315789,0.1937551221052632,-0.5489197336842105,0.7783287635263157,0.34909942664736854,-0.5236261424736843,0.655809696631579,0.545688947368421,0.28473925842105263,0.25011273631578956,0.2602532678947369,0.6872809752631578,-0.6527094489473685,-0.3356663331578948,0.10473379371052631,-0.4674367362631578,0.32733341505789487,0.14951318947368422,-0.21838174526315784,0.9406344994736843,0.8750656357894736,-0.3123924005263158,0.41184858600000007,0.18708758526315797,0.19779146263157893,-0.012965873157894787,-0.18737762473684205,0.5323239278947368,-0.08908854000000005,0.22729573,0.38941336421052636,-0.5363524676842104,-0.9830601442105265,-0.260346712631579,0.2752688957894736,-0.13515302157894737,0.3076570114210526,0.05919644684210524,-0.42976407505263164,-1.434382470526316,-0.8595692184736843,0.1383497842105263,0.30255618615789465,-0.7026340184210524
View Profile -&gt; Add section -&gt; Featured -&gt; Links -&gt; Insert your kaggle profile link ,-0.3966572381818182,0.46862152127272716,-0.08230288063636364,-0.6709696869999999,-0.760462944181818,-0.31253118090909093,0.01455775363636363,-0.39911218181818187,0.4466929672727273,-0.134099789,-0.871424651818182,0.5445020081818183,0.055262601818181795,-0.17066629954545454,0.4885475036363637,-0.65458784,0.025401904690909104,-0.47517978454545456,-0.0684975899090909,-0.10113518272727275,0.6258084145454545,-0.5087051836363636,-0.10135672181818173,0.9761176381818181,-0.8238695527272729,-0.023083998181818197,0.838503806909091,0.6068135118181819,0.6503505854545454,-0.5176378772727273,0.23186000090909095,0.08793599509090902,0.19176452818181816,-0.5208047027272725,0.16070634272727274,-0.44450015454545455,-0.16493486409090907,0.8305701854545456,-0.46890464454545455,0.2624542380000001,-1.0052357854545455,-0.24513674245454542,-0.6169526372727273,0.19024729,0.5105100618181818,-0.3886096945454545,0.5598223154545454,-1.0844955463636365,-0.10416469545454547,-0.2342505854545455,0.33303912609090913,0.14989204090909095,0.5486982810909091,-0.5178339636363636,-0.29390023695454554,0.14196034409090913,-0.28358215963636363,0.5210635893472727,0.5439509286363636,-0.1335547509090909,0.09706727118181821,-0.8187216054545455,0.04476269909090905,0.750954078181818,-0.20759192054545456,-0.4759414981818182,0.10246988497272728,-0.6663436645454546,0.22794367008181823,1.205606059090909,-0.18098568136363632,0.05324713363636368,-0.368066009,-0.2747717859090909,0.7250387918181819,-0.8766713645454547,-0.11915859545454549,0.061316466090909086,0.5758149300000001,-0.8326337381818181,0.44197863454545466,-0.4773767503636365,0.8211565881818182,0.7552818754545453,0.76973585,0.8513525827272727,0.21876576454545457,0.48483347363636375,0.0165892518181818,0.16225909118181814,-0.302136699090909,-0.4373440518181818,-0.28450077445454547,-0.6760679509090909,0.10634520499999998,0.9928752381818181,0.44604115281818174,0.5886535700000001,0.6416611763636363,0.5825065900000003,-0.6148174690909091,0.4384481763636364,-0.3775936754545455,-0.80136775,-0.14501261318181813,1.0773595828181817,-0.834661109090909,0.04903401545454547,-0.08044897636363638,-0.14200285145454547,-0.8985377454545455,-0.6529242054545453,0.43005222727272724,-1.148514829090909,0.3066015609090909,-0.3157179227272727,-0.6039681727272727,0.05114895727272722,0.6583243411818182,-0.2611642536363636,0.9568027303636363,-0.47598194999999993,-0.46691945999999995,1.2477672454545452,0.09507307727272728,-1.0773924172727272,-0.46177941454545457,0.35947304663636365,0.7455333578181818,0.2460376783636363,-1.2396207990909092,0.013710662727272721,0.24234013309090907,0.5237275818181819,0.6277480484545456,-0.1943547619090909,-0.2201718609090909,-1.0059285527272726,1.0917635090909092,-0.10564587818181816,1.1773623809090907,-0.3325674859090909,-0.8171872212727272,-0.8979257463636362,0.024237337272727224,-0.6772319781818182,0.32993681454545454,0.7298480977272725,-0.31057290181818187,0.20101335690909092,0.7016284709090909,0.02519714454545454,0.09089759945454545,-0.07714001454545458,0.2898546681818181,-0.30724664500000004,0.34708452818181823,0.22825387236363637,-0.13152300363636363,0.7438148383181818,0.3009853190909091,0.548804187,-0.4334290836363637,0.19780359490909102,-0.1979558642181818,-0.0736815389090909,-0.07041503454545452,0.03473910818181816,-1.0512808006363636,0.3864596863636364,0.08177539636363637,-0.12571092909090903,0.29920907618181825,0.07363263909090909,0.23787020909090897,0.1437768260727274,-0.29570896700000004,-0.5872872450909091,-0.06369249130909091,-0.8511824217272725,-0.7815427954545453,0.09927945763636369,-0.6526228636363637,0.08960647172727275,-0.2234193063636364,0.061082869090909105,-0.40890630181818177,0.5680647368181818,-0.13239888727272725,-0.32268366354545464,0.300449400909091,0.22098773299999996,-1.4331051663636363,0.018435590818181823,0.8172507027272726,1.4654499290909093,-0.2975443181818182,0.23717475790909096,0.009219459090909073,-1.2235905080454543,-0.5288061285454544,-0.5749221218181818,-0.5671182199999999,-0.6278854063636363,0.02618946272727277,0.4582571867272728,-0.07640524236363631,-0.01820782363636363,0.4287762672727272,0.7240252356363637,-0.4921616685454546,-0.07082585545454544,-0.1758043868181818,-0.5918063945454546,0.1023062152727273,1.6414047536363638,0.17048140363636366,0.3860901049090909,0.5940565841818182,-0.5953108245454546,0.40650554090909097,0.4316121536363635,-0.9930633354545453,-0.3780523109090909,-0.2879078799999999,-0.02559543909090912,-0.37501910318181814,-0.247117246,-0.048227732727272744,0.030469169000000015,0.5483952862727274,-1.3419433987272724,-0.9961304863636364,-0.10126518,-0.16668198145454552,-0.1815714645454546,1.3534832090909092,0.1376541046363636,0.3868895072727273,0.7663273472727272,0.2764733018181818,-0.42189365636363624,-0.07323003799999998,-0.07982997327272724,0.39197753291818177,0.3847217636363636,-0.0766654777272727,0.2795868781818181,-0.7570866354545455,-0.5304157979090909,0.5548373431818182,0.8663784746363636,-0.4484841490909091,0.4197811945454545,-0.4980566876363637,0.2935108333636364,0.17338138845454545,-0.01287403727272728,-0.13872182927272725,0.7700091436363636,0.15037582999999996,0.0285695813636364,-0.1356030467272727,0.11247792000000002,0.7205017800000001,0.13940385545454548,-0.23019873272727265,0.5875506852727274,-0.3748678491818181,-0.6326377018181818,0.6694468866363638,-0.8327588749999997,0.13515397854545452,0.3558760197272728,0.2084973936363637,-0.10323399863636365,0.4544092572727273,-0.8528123790909091,-0.3015352001818182,0.18506699,-0.10783939809090906,0.10813410909090915,-0.8104429599999999,0.5505382894545455,-0.5418435209090909,0.9540594625454548,-1.1159482272727272,-0.5112533572727274,-0.7919841309090908,-0.9997307963636364,0.7703007327272726,-0.33075544272727275,-0.3310991534181818,0.10176046999999998,-0.23761945909090912,-0.8702081863636365,0.44019242636363637,-0.9122858927272727,0.20221269178181817,-0.038801013636363596
@aminizahra Congratulations,-1.910779,3.1425473999999998,1.4979961000000002,-0.3594303,1.910739,-1.9980451000000001,0.8318506999999999,-1.4454645000000002,-1.4745468000000002,1.3099108,0.21673612,-1.2996988,0.50738055,1.1198947,2.046423,0.18589129,1.3027316,2.1119604,1.7536691000000002,-0.05261882,2.1009132999999998,1.9512397000000001,2.1987982,-0.13996874,2.1899523999999997,-1.6322596999999999,-1.2760133999999999,-0.09640048400000001,-0.520861,-0.5905315,1.4454831,-1.7726896,1.3677001,0.40192232,2.07212,1.1504246,1.3991637,1.0295416,1.7040298999999999,0.15448272,-0.10725059,-2.1618617,0.99697614,1.1343443000000002,-1.2160286,-1.412695,-0.7850180999999999,-1.2181026000000001,-0.56189024,1.2245532,0.38803459999999995,0.5624395000000001,0.21761513,1.6362921000000001,-2.3579698,2.1206273999999996,-1.4009018999999998,-0.9480023000000001,-1.2126271999999998,-0.28059068,-2.6961524,-0.46542418,-0.49880424,-0.114739835,0.86532706,1.9049052,0.8407743000000001,-0.26409309999999997,-0.8079522,1.6658336999999999,0.37636146,-2.1873865,0.5237702999999999,0.8722700000000001,0.92697877,-0.4814504,2.4631276,-0.58201987,0.47534046,1.0327562,0.7234674,0.3751933,-0.50885135,-1.2093978,-0.32993466,-1.5234011,-0.5526789000000001,0.17035653,-0.24143583,1.1732619,0.4051955,-2.4239752,-1.4147043,2.2303037999999997,-1.257298,1.8824162,-2.0981965,0.22266081,-0.4193808,-0.17633174,-2.5866783,-1.8882642,-0.7216816,-0.6220193,0.53077614,-1.8723302,-0.46956807,-0.30195883,0.9274556999999999,0.28397682,1.9589415000000001,0.19316545,-0.027421832,1.0823586,-0.9565985999999999,-1.289336,1.3137273,0.22504689,1.0649916000000001,0.9229377000000001,0.03868172,0.43141809999999997,0.8153103,-1.7320375,0.29071882,-0.30031773,2.7317777000000003,-0.5466033,1.2939051000000001,0.40690976,1.1419675,0.62609434,0.696121,0.00615208,-0.41306975,1.844941,-1.854254,-0.81667626,-0.22917379999999998,0.36623582,-0.8451508,-0.41634294,-1.5915972,-2.0105674,-0.74490273,1.9163578999999997,-0.5662259,-0.70124525,0.38813367,-0.29458606,-0.34318346,2.3392467,0.7843329000000001,1.3023881000000002,1.752346,0.015573759,2.4107568,-0.36065316,0.49763,-2.3157202999999997,-0.9207360000000001,-0.07379207,-0.047276184000000006,0.0416134,1.7555140999999999,-1.545197,-0.08306964,-2.2565873,-1.3146111,2.1828194,1.0500858999999998,1.0534371999999999,0.24524713,-0.7520975999999999,-0.12913471,0.13350813,-0.23701677,0.26331425,-0.36372533,-1.4854293,-2.526408,-0.33024928,0.79639375,1.1810018,0.46004880000000004,-0.4694925999999999,1.0043883,-1.0373844,-0.5279854,0.79165363,-0.90414894,1.7512087,-0.43547285,0.68941957,0.23321973,-0.25946778,0.72607285,1.8793061999999998,1.3538165,-2.2194567000000003,-0.21299770000000004,1.1780125,1.1215168,0.12271069999999999,-1.5409999,-1.6692101000000001,-0.2577415,-1.1812996999999998,-2.1682918,0.3616006,-0.2221755,-1.0226201,-1.2865735,-0.6144644,2.3333703999999997,1.8941967,-0.25287843,1.6466290000000001,2.1108224,-0.55154973,-0.8129541,0.33750959999999997,-0.42523869999999997,1.8096039000000002,-1.3305774,0.2178446,-0.7341694000000001,-1.6396929,0.54002815,0.34746674,1.1036907,-1.6226101000000002,0.88889027,0.86106557,0.1335547,-1.7944659,0.06617496,-2.4763154999999997,-0.98879933,1.9026973999999999,-0.34544292,-1.4964496,-1.5024866000000001,1.5623757,-1.090881,-0.009384726,2.8139036,-0.732755,1.1897591,-0.29372174,-0.2990388,0.27760267,1.1274098,1.7034516,-1.144513,1.3485905,0.612371,0.9876872,-3.1407137,-2.3177333,0.6827976,3.5343866000000004,-0.6842301,0.28678757,1.5307393,0.7291875,-1.0754248,-0.23504806,0.13858469,-1.1876704,-4.009142,0.28210697,-0.28929287,0.4105962,1.9360703000000001,-0.42453226,-0.98347557,-0.11559093,-3.1356907000000005,1.9458048,1.1853669,-0.7038561,-2.3950775,-0.7841005999999999,-0.15431982,0.22674407,0.8353301,2.1938534,0.9766396999999999,1.0853008999999998,-0.8724519000000001,-0.36955836,-2.3400197,-1.5666385,-1.68108,-0.8953834,1.5898159,-0.30189565,0.614337,0.95417607
Congratulations Zahra! ,-0.9895365725,1.5679894123499998,0.7510874498500001,-0.16067693,0.9841390584999999,-1.011229584,0.41982359714999995,-0.7547830050000001,-0.7706038220000001,0.6780461465,0.103879435,-0.699069805,0.22797114250000003,0.5678218445,1.041655335,0.12729107,0.677322682,1.0456055535,0.8828243420000002,-0.059357204999999996,1.0381043024999999,0.991772329,1.1445432800000002,-0.049290688000000006,1.0893395129999999,-0.8244056249999999,-0.653198906,-0.024483194500000003,-0.26209272825,-0.305234472,0.750007613,-0.903165905,0.710966105,0.2094943325,1.020345865,0.571116618,0.7317182249999999,0.541832333,0.882374617,0.1066969325,-0.056040280000000005,-1.0753520245000001,0.4929839925,0.5836892700000001,-0.56616649,-0.6999261760000001,-0.40580272149999996,-0.6115994505000001,-0.323862385,0.6228691335,0.14944191999999998,0.26384888700000003,0.13550442399999998,0.8195987407,-1.216464405,1.0607339842499999,-0.762124485,-0.5010474485,-0.6366394189999999,-0.18985689249999999,-1.335666444,-0.22459418350000002,-0.262554902,-0.0402131075,0.4665499625,0.93050702,0.42427875125000003,-0.1854819875,-0.40385634943,0.8568386649999999,0.22204764,-1.0646394185,0.24073871099999997,0.45239441,0.434327537,-0.210487788,1.23135939687,-0.2961105675,0.2778365075,0.48741312249999996,0.3730367625,0.22583695,-0.21747473300000003,-0.632912533,-0.08960476499999999,-0.742087615,-0.31270742000000007,0.116008365,-0.127641228,0.62802956,0.195284919,-1.236588093,-0.76354011,1.1095122494999998,-0.6619635700000001,0.9508822795,-1.0163035175,0.1215495925,-0.1993451645,-0.08878975974999999,-1.300464555,-0.963339967,-0.34108629700000004,-0.322755088,0.25591117999999996,-0.9543658235,-0.286923388,-0.078975925,0.46723136099999996,0.12760244250000002,0.9970589685000001,0.061825824999999994,0.003998168999999999,0.5363300635,-0.4844279649999999,-0.651973796,0.618076598,0.07540378,0.5981551450000001,0.4548653905,0.051579545000000004,0.25425191999999996,0.3804960665,-0.8745076479999999,0.177085155,-0.1464828175,1.3040952170000002,-0.2727728306,0.6451348374500001,0.225927377,0.52407903,0.3208875445,0.3307131215,0.039611845,-0.20002461775,0.947524995,-0.953976285,-0.43087432000000003,-0.05524174999999999,0.21677963,-0.387363647,-0.208599769885,-0.7831413395,-1.0783363899999998,-0.36222720049999996,0.9898152349999999,-0.313801707,-0.34382142600000004,0.20788178999999998,-0.18014973299999998,-0.09544956,1.12368661,0.37448981700000006,0.6918610300000001,0.8626631435,-0.050639895500000004,1.2255019565,-0.1638710115,0.2387215795,-1.1811063769999999,-0.48177523000000005,0.023900643,-0.009939115500000003,0.01883241675,0.86459952,-0.78694223,-0.0240947915,-1.1303269728,-0.69838974,1.0977651370000001,0.5254022834,0.5278933842499999,0.0985263515,-0.42529734249999995,-0.10750829,0.078410545,-0.096438953,0.08174301,-0.167583031,-0.7677543880000001,-1.25679395025,-0.19365565499999998,0.376601575,0.56219797,0.21118575500000003,-0.21228662349999997,0.4793102875,-0.5219295022,-0.23090751000000004,0.437620385,-0.433721685,0.92715311,-0.283040915,0.344687858858,0.1261463705,-0.105590755,0.341293781,0.9597728729999999,0.686121605,-1.1112969802000001,-0.12326832600000003,0.5971520349999999,0.5326859965,0.005475814999999995,-0.7840619885000001,-0.8200835780000001,-0.131494589,-0.5891965068999999,-1.085345011,0.17882313219999998,-0.1205489535,-0.5115212431099999,-0.635545355,-0.314266989,1.1763672779999998,0.962136464,-0.14202505099999999,0.8079840290000001,1.088917945,-0.32818552,-0.373968647,0.162297904,-0.21814623249999998,0.9010564442000001,-0.6576443879999999,0.059495603,-0.36923899150000006,-0.8215077936,0.24933715300000003,0.145884072,0.5730078525,-0.7944197850000001,0.4537424875,0.47239767499999996,0.0496070475,-0.929053627,0.08600108249999999,-1.2225982229999999,-0.501767492,0.9790646449999999,-0.1371874,-0.780532723,-0.7421330970000001,0.8060378460000001,-0.5469663454,0.0101725995,1.3821332620000002,-0.31652476,0.530890655,-0.17261536,-0.1179079,0.166584835,0.586128212,0.899338145,-0.54216088,0.661580864,0.251322085,0.4923166875,-1.5742669395,-1.188654356,0.3870047425,1.771631981,-0.3322910355,0.134884803,0.773441339,0.37230575,-0.557259216,-0.096531058,0.09369329000000001,-0.603598534,-1.9905665785,0.13376360650000002,-0.1600914335,0.2215419935,0.9905767400000001,-0.237876,-0.514137108,-0.100642175,-1.5829638680000002,0.9887642034999999,0.5634639735,-0.329678683,-1.217744527,-0.35837822799999997,-0.0550990465,0.088181663,0.389188981,1.1453075,0.47859838499999996,0.5627052019999998,-0.41962305400000005,-0.196776036,-1.17433609575,-0.799438842,-0.8675012185,-0.46623164300000003,0.777608705,-0.18439487000000002,0.32058639850000004,0.5185243150000001
Congratulations!,-1.910779,3.1425473999999998,1.4979961000000002,-0.3594303,1.910739,-1.9980451000000001,0.8318506999999999,-1.4454645000000002,-1.4745468000000002,1.3099108,0.21673612,-1.2996988,0.50738055,1.1198947,2.046423,0.18589129,1.3027316,2.1119604,1.7536691000000002,-0.05261882,2.1009132999999998,1.9512397000000001,2.1987982,-0.13996874,2.1899523999999997,-1.6322596999999999,-1.2760133999999999,-0.09640048400000001,-0.520861,-0.5905315,1.4454831,-1.7726896,1.3677001,0.40192232,2.07212,1.1504246,1.3991637,1.0295416,1.7040298999999999,0.15448272,-0.10725059,-2.1618617,0.99697614,1.1343443000000002,-1.2160286,-1.412695,-0.7850180999999999,-1.2181026000000001,-0.56189024,1.2245532,0.38803459999999995,0.5624395000000001,0.21761513,1.6362921000000001,-2.3579698,2.1206273999999996,-1.4009018999999998,-0.9480023000000001,-1.2126271999999998,-0.28059068,-2.6961524,-0.46542418,-0.49880424,-0.114739835,0.86532706,1.9049052,0.8407743000000001,-0.26409309999999997,-0.8079522,1.6658336999999999,0.37636146,-2.1873865,0.5237702999999999,0.8722700000000001,0.92697877,-0.4814504,2.4631276,-0.58201987,0.47534046,1.0327562,0.7234674,0.3751933,-0.50885135,-1.2093978,-0.32993466,-1.5234011,-0.5526789000000001,0.17035653,-0.24143583,1.1732619,0.4051955,-2.4239752,-1.4147043,2.2303037999999997,-1.257298,1.8824162,-2.0981965,0.22266081,-0.4193808,-0.17633174,-2.5866783,-1.8882642,-0.7216816,-0.6220193,0.53077614,-1.8723302,-0.46956807,-0.30195883,0.9274556999999999,0.28397682,1.9589415000000001,0.19316545,-0.027421832,1.0823586,-0.9565985999999999,-1.289336,1.3137273,0.22504689,1.0649916000000001,0.9229377000000001,0.03868172,0.43141809999999997,0.8153103,-1.7320375,0.29071882,-0.30031773,2.7317777000000003,-0.5466033,1.2939051000000001,0.40690976,1.1419675,0.62609434,0.696121,0.00615208,-0.41306975,1.844941,-1.854254,-0.81667626,-0.22917379999999998,0.36623582,-0.8451508,-0.41634294,-1.5915972,-2.0105674,-0.74490273,1.9163578999999997,-0.5662259,-0.70124525,0.38813367,-0.29458606,-0.34318346,2.3392467,0.7843329000000001,1.3023881000000002,1.752346,0.015573759,2.4107568,-0.36065316,0.49763,-2.3157202999999997,-0.9207360000000001,-0.07379207,-0.047276184000000006,0.0416134,1.7555140999999999,-1.545197,-0.08306964,-2.2565873,-1.3146111,2.1828194,1.0500858999999998,1.0534371999999999,0.24524713,-0.7520975999999999,-0.12913471,0.13350813,-0.23701677,0.26331425,-0.36372533,-1.4854293,-2.526408,-0.33024928,0.79639375,1.1810018,0.46004880000000004,-0.4694925999999999,1.0043883,-1.0373844,-0.5279854,0.79165363,-0.90414894,1.7512087,-0.43547285,0.68941957,0.23321973,-0.25946778,0.72607285,1.8793061999999998,1.3538165,-2.2194567000000003,-0.21299770000000004,1.1780125,1.1215168,0.12271069999999999,-1.5409999,-1.6692101000000001,-0.2577415,-1.1812996999999998,-2.1682918,0.3616006,-0.2221755,-1.0226201,-1.2865735,-0.6144644,2.3333703999999997,1.8941967,-0.25287843,1.6466290000000001,2.1108224,-0.55154973,-0.8129541,0.33750959999999997,-0.42523869999999997,1.8096039000000002,-1.3305774,0.2178446,-0.7341694000000001,-1.6396929,0.54002815,0.34746674,1.1036907,-1.6226101000000002,0.88889027,0.86106557,0.1335547,-1.7944659,0.06617496,-2.4763154999999997,-0.98879933,1.9026973999999999,-0.34544292,-1.4964496,-1.5024866000000001,1.5623757,-1.090881,-0.009384726,2.8139036,-0.732755,1.1897591,-0.29372174,-0.2990388,0.27760267,1.1274098,1.7034516,-1.144513,1.3485905,0.612371,0.9876872,-3.1407137,-2.3177333,0.6827976,3.5343866000000004,-0.6842301,0.28678757,1.5307393,0.7291875,-1.0754248,-0.23504806,0.13858469,-1.1876704,-4.009142,0.28210697,-0.28929287,0.4105962,1.9360703000000001,-0.42453226,-0.98347557,-0.11559093,-3.1356907000000005,1.9458048,1.1853669,-0.7038561,-2.3950775,-0.7841005999999999,-0.15431982,0.22674407,0.8353301,2.1938534,0.9766396999999999,1.0853008999999998,-0.8724519000000001,-0.36955836,-2.3400197,-1.5666385,-1.68108,-0.8953834,1.5898159,-0.30189565,0.614337,0.95417607
"Guys,
According to one report, By 2025, it’s estimated that 463 exabytes of data will be created each day globally – that’s the equivalent of 212,765,957 DVDs per day!
There is a huge demand for Big Data Analysts in every field.
That's why I thought to share 8 Completely Free Big Data Online Courses with you
All the courses are free and you don’t need to pay for any course.
I hope you will find these courses helpful.
Happy Learning!",0.4271946502249998,-0.01358844015625001,0.21144970328125,-0.055806141812499974,0.530980545484375,0.1337329900984375,0.5596412745156248,0.34983421171875007,-0.10246328134375002,-0.2372770624437502,-1.0913566332031248,0.2606914523929686,-0.08736259196562503,-0.12067063593749988,0.9227413431312498,-0.44894227481250004,-1.1276172902890627,0.3428667347500001,-0.37651189381250005,0.052814596140624996,-0.49390889398437515,-0.7848700839374998,0.5558864388593749,0.8913813638750001,-0.48287957883125,0.397462250625,-0.4910047377578125,-0.3243906889062498,-0.19136699335937501,0.06596422822375003,-0.5211369339062502,0.37941971784375006,-0.14262650218749998,-0.13462637237500008,-0.5665770918078126,0.3167332951406251,0.14923931416250003,0.5032648540625002,-0.23995997541406242,0.8453229423984373,0.27512772284375,0.056398609109375025,-0.34231530695312506,0.44347430242187513,-0.13690938456787502,0.2856376909375001,1.0280322599640623,-1.1892422260421878,0.3772850314828124,-0.3718542685312499,0.3994504085781251,0.018808016984375002,0.08509359434375,0.5809693063593752,-0.25725486306249995,-0.27681182966406254,-0.3286227806562499,0.7227226222500002,0.32275329475,-0.3156445288437498,-0.5288156962031251,-0.5753863756875,-0.3768022167843749,0.3095193803124999,0.06373667657812504,-0.8357614052656249,-0.029071578129687525,-0.10662905509374998,0.49356636034375023,-0.5907179791093753,-0.010529396703125016,-0.131995978421875,-0.1853006345007812,0.16120175885937504,-0.052766915632812494,0.44241518847109385,-0.5321169892968751,0.6348667662031247,-0.1916494022343751,-0.1789415452078125,-0.5386513378749999,0.45093857781250013,0.8656616790859378,0.38547694238281266,0.09116113003906255,-0.329427341621875,0.08928775804687497,0.38398266655624985,0.507464334359375,0.28632580109375,0.3147650813437499,-0.37691061290624994,-0.228835539803125,-1.1072762149218747,0.31428905596874995,0.325462861015625,0.40156330946875,1.0734536222078122,0.3398467024375001,0.829718902771875,0.6719117192187497,0.4314293670000001,-0.7497950897343755,-0.4051098378125001,-0.10700369769531251,0.69456057034375,0.067198111203125,0.12738093553125004,-0.07403523693750004,-0.2076593387140625,0.04381803759375004,-0.4680174066562501,0.38436751378125017,-0.8192742572390628,0.3665652155,0.4695987744062502,-0.044508662367187465,0.080114610453125,-0.1733720895937499,-0.5167251633281251,0.2793179487906251,0.3332650040359374,-0.45650494220312493,-0.201473913953125,-0.06996823986875,-0.01596104290625001,-0.3512954795687499,0.10519393765156249,0.14867402560312498,0.03301865360796874,-0.2818183352828126,0.0477477219421875,0.0005940144218750014,-0.528607705634375,0.0896935538437499,-0.6778050987031251,-0.20942994514843752,-0.05026881034374998,0.9299870104921876,0.24926100222500003,1.0710305424999995,0.3795556263984373,0.236526420546875,-0.9167028327265628,-0.595987232796875,-0.5331943360156247,0.0781743767875,0.47794544079687523,-0.15175834221875,-0.04821247536249995,0.5633069802499998,0.42448101709374986,-0.575661224,-0.004593216448437513,-0.15697099734375003,-0.6237643215312502,0.31765962856249985,0.6492146766562501,0.167395598140625,-0.042058839298437484,0.5535971265218751,0.3175599514531248,-0.254571363765625,0.14204543090625002,-0.010185968364999983,1.0909728382812498,0.05705575974804689,0.14116487392656246,-0.23256158865625007,0.15957335185937502,-0.30027240271875,-0.41862937440625003,0.8342056317187498,0.343749315859375,0.09997979023437503,0.6816865679687499,0.13153449945312498,-0.21640052481249983,0.31109258298281256,-0.1519059177703125,-0.10680348756875005,0.20851491876562492,-0.2106005452799689,-0.10660471493125,-0.6411700467500001,-0.582159888109375,0.29169700132990634,0.6298173568640626,0.03954329315624994,-0.7573956712187498,0.8844577340703124,-0.22811084926562497,-0.3105388928593751,0.16108376079687503,0.8201219448125,0.6162569904062498,-0.3569087247734376,-0.6530364345703125,-0.22504953654687498,-1.20918291553125,-0.6778616579687499,-0.9581365515624998,-0.44504427199999985,-0.7912442720468751,0.6134276544843746,0.12208432990625001,-0.6525712207812502,0.7088886693515627,0.01877418221874997,0.2704386702171875,0.159185171928125,-0.13499440756249997,-0.49871601069062516,-0.4988686311875,-0.050653323593749966,0.7460523399375,0.22203674736406248,-0.3600193141562501,0.04132049770312499,0.10234051852625006,0.47943249372812496,0.37173237639062495,-0.077442523109375,-0.4779101102187501,-1.022208069453125,0.02763303660937501,-0.04020610482500001,-0.5286280194374998,0.019607261726562537,-0.8911008461093752,-0.4610320843906252,-0.43086455712343746,-0.786773704559375,-0.18043393476562503,-0.17313440618749992,-0.36014678318749976,0.6402504793734373,0.25838405704687495,-0.694827407890625,0.7112939325312502,0.64792313096875,0.8468773424165623,0.6801115036406252,0.30332731268749996,0.1633930384375,0.040400780781250055,-0.19324508212499986,-0.5389994069218751,-0.5532246652125002,-0.16364476310625004,0.4096082456453125,0.17271587670312497,0.6748029514687499,0.5837808178906252,0.43123481722968754,-0.4017997309687501,0.39169685114062497,-0.1376916484796875,-0.5874064328593751,0.6687172512609377,-0.097003577171875,-0.6860984929687497,0.6742235481726563,0.34168553387500006,0.08588824197500002,0.148939622953125,0.2825116166250001,0.57207779475,-0.41817131422812487,0.03986259902031248,0.37685742065937505,-0.6475827828281254,0.3463782313807814,0.11385187034374998,-0.034401895501562495,0.8472128932656249,0.3011911806562501,-0.2020804137359376,0.06519694307812503,0.04413032220312492,-0.17710607736718753,-0.332858417903125,-0.3873456290937501,0.19545668925468745,0.019656691781249985,-0.00276139775,-0.06175034062500003,-0.2503112481718749,-1.0174103000312495,-0.5041559039218749,0.4259010568437499,-0.5487819375468749,0.18217972625,0.017066589062500002,-0.31595166650218753,-0.6320159244999995,-0.36446331371875007,-0.07815297237500002,0.5254933466875001,-0.5540548692640624
Can you share the link of the report? ,0.4812246414285714,-0.37436633142857145,-0.4917871971428572,-0.36669339142857144,0.5960131100000001,0.28646254142857147,0.43967159571428577,0.3841541371428572,-0.21391776428571424,-0.4700122489142858,-1.4534266985714286,0.5852402175714285,-0.0049249257142857245,0.3498270428571429,0.33869037028571425,-0.8860596571428572,-0.9542504504142858,0.10079748999999992,-0.6650094485714285,-0.013095090999999994,0.7046964085714286,-0.6966668185714285,0.6473653857142857,0.7400750285714286,-0.7228506914285715,0.2876821807142857,-0.11197257485714283,0.5078356399999999,0.061821054285714286,-0.8400036500000001,-0.7442892214285716,0.03347608999999992,-0.7452854371428571,-1.1066236314285713,-0.7209360914285714,0.42943943428571424,0.4683377871428572,1.0963301628571427,0.3281116613571428,1.2603628514285712,-0.36716603000000003,-0.23348650457142853,-0.7755652471428572,0.5455387428571429,-0.1835245285714286,0.017796010000000067,0.7528156642857143,-1.6029413714285716,0.3840472285714286,-0.5257226428571429,0.5576345214285714,0.09898477142857146,0.6219388128571428,0.60693193,-0.24476285571428566,-0.9093727571428573,-0.29399650571428576,1.3545248099999998,0.8810253271428572,-0.37804971857142855,-0.16326359000000007,-1.0901915237142856,-0.42129654285714285,0.8367640642857143,-0.17528057571428576,-0.821465947142857,0.04051158285714284,0.19509020857142856,0.7684287462857142,-0.7209423957142854,-0.02910663928571427,0.2639441728571429,-0.3190249214285714,-0.9484390857142857,0.33421159000000006,0.41824651799999985,-0.3603599857142857,0.8013022828571429,-0.022188601428571424,-1.066877192857143,-0.4000409344285714,0.2462274851428572,1.2775768157142857,0.5123326885714286,0.4215629671428571,0.1900927485714285,0.61266702,-0.5630531657142858,0.052383407142857115,0.7664353789999999,-0.33283885714285716,-0.18518389142857147,-0.315550537142857,-1.2213216714285713,0.2996919288571428,0.5258640671428572,0.5805600357142857,1.45896486,0.2706211585714286,0.4639364442857144,0.9667592971428574,0.59953699,-1.2170792485714286,-0.28003063657142857,-0.7670052724285715,1.6930415614285717,-0.2760517522857143,0.3900608677142857,0.04092437428571432,0.054126158571428606,-0.28860858571428577,-0.8642325582857142,0.06204745999999999,-1.0964991657142857,0.13214663942857144,-0.060286904285714274,-0.43216145214285717,-0.08951167885714284,-0.6976221452857143,-0.47690708857142866,0.34012799,-0.10901638608571436,-0.7623464428571428,-0.16466874142857144,-0.1638576571428571,-0.5764893742857142,-1.0628181328571429,0.20339259714285715,0.7820020528571429,0.19481313,-1.0786888085714286,0.04009690432857138,-0.29073965142857144,-0.41625414285714285,0.15590004757142853,-0.2758709828571429,-0.2511982657142857,-0.27942281714285716,1.558990902857143,0.6461325585714286,1.0751315,-0.23995765142857142,-0.8111111900000001,-1.9581863285714285,-1.1266234835714284,-0.6672032082857143,0.21977199642857143,0.10494620571428569,-0.5828400185714285,-0.10495805214285718,0.8105594357142857,0.3835774492857143,-0.8018347685714288,-0.3018623291,0.5828385465714285,-0.7836699214285715,0.49200519000000004,1.293369584285714,0.04389226428571429,0.45281505000000005,0.8988132291428572,0.4184210685714286,-0.8859174857142857,0.13061904457142864,-0.07688149285714281,0.3493493200000001,0.4046936357142857,0.14516659142857138,-0.9532985442857143,0.4431664971428571,0.3647634685714286,0.16892174714285724,0.9262889778571429,0.6425125342857143,0.7302545871428572,0.9773654400000001,0.26719446714285716,0.33800994285714275,-0.22374215714285714,-0.7607106171428571,-0.7977338057142858,0.7586209300000001,-0.4397233514285714,-0.27018318028571425,-0.7979346671428572,-0.4784234014285714,-0.5661648285714286,0.37519615857142863,0.14391951857142862,-0.6642684014285715,0.5767199714285715,0.6089949871428572,-0.9120990574285714,-0.15833262728571423,2.0509654999999998,1.0312716442857142,-0.8435088742857143,-0.8551222799285714,-0.21639864242857146,-1.9174779571428573,-0.5220627728571429,-0.3626070985714286,-0.4502394314285714,-0.514648322857143,0.7515039039999999,0.34814781,-0.4902910774285715,0.7669146671428572,0.2901261514285714,0.07713984571428568,-0.4820462728571428,-0.09209729000000001,-0.08075145145714278,-0.6954903828571429,-0.06918008942857144,0.9841626885714285,0.6717398928571429,-0.35026036914285724,-0.16338060285714287,-0.23211094285714287,0.5801731472285715,0.7543897642857144,-0.3373048671428572,-0.6784741707142857,-1.2997922100000001,0.16249722714285708,-0.06698670399999995,-0.5344039614285715,-0.4047351885714286,-0.15998067000000002,-0.2392956642857143,-1.133764262857143,-1.5601266914285714,-0.35276249285714284,-0.6856775300000002,-0.8328850942857143,1.1347567257142857,0.5338745691428572,-0.49607954714285724,0.7838983749999999,0.5520326571428572,-0.12566544185714285,0.918453248857143,0.2303664985714286,0.30747055999999995,0.14291010457142855,-0.6372793842857142,0.03321271428571427,-0.39685279571428583,-0.08679335285714283,0.9270032650000001,0.36908788,0.648647542857143,0.4049970285714285,-0.26661603200000006,-0.7085338761428571,0.17938246285714282,0.002883032857142912,-0.5127980247142857,1.0258136471428572,0.17337629485714287,-0.5486775999999999,0.590914430292857,0.3333244442857143,0.5526877942857142,0.3622331028571429,-0.38773707142857144,0.7666931442857143,-0.1777862571428571,-0.281318384,0.8773038299999999,-0.5827326442857143,-0.019721942857142776,-0.11200866957142845,0.06807617714285703,0.9077673442857144,0.8026542528571429,-0.2393072137142858,-0.34271267,-0.07028729714285713,-0.28975668,-0.39860768714285705,-0.23141592914285716,-0.0033094342857143133,-0.1871483171428571,-0.18476061714285713,0.6083321885714286,0.15327991999999993,-1.4842515471428572,-1.6426757,1.1493119185714284,-0.5688786692857144,0.22436393428571444,-0.22002803857142855,0.0008086735714286067,-0.5710299185714285,-0.15296104142857142,-0.7998767428571428,0.21507806171428573,-0.25442335857142856
"Hey Community!
I recently learned about K-Means and Hierarchical Clustering as a part of the curriculum of the Data Analytics course in B.Tech. Data Science &amp; Engineering at Manipal Institute of Technology. After learning the theoretical terms, we were assigned a small project to apply the same concepts.
In this notebook, I have used RFM - Recency, Frequency and Monetary Value aspects to cluster customers using the K-Means Clustering method and the Agglomerative Clustering method and visualized them using a Scatter Plot and a Dendrogram. 
Here is the link to the notebook: https://www.kaggle.com/khusheekapoor/clustering-using-rfm-analysis-in-python
Please do share it with someone who you think will find it useful and let me know if you have any queries. Thank you and Happy Learning!",0.44201108300869585,0.08443748388043483,0.22527311837826094,-0.0657579055217391,0.20353510140217396,0.15461469332391306,0.2553838692282609,0.04676521446739125,-0.36234276919565206,-0.17981831220217395,-0.9614263871869568,0.24267244017934786,0.026557637836956537,-0.2475375590108697,0.536153340869565,-0.4794906854782607,-0.785279710922826,0.2346566795576087,-0.23883821980434772,-0.0438930095,-0.35873075499347845,-0.49964582725434764,0.45765112804347846,0.8364583057646745,-0.6090676019934782,0.47852572896739154,-0.30727640746739127,-0.007005304486413014,-0.25040859307499996,-0.18931920114130435,-0.47232467380108684,0.375233242427174,-0.3039236113586957,-0.18353847509782598,-0.4226557249934782,0.23944328178260865,-0.15976210844456515,0.41388980723152163,0.08338922918369569,0.6146740553369563,-0.07188140640217391,0.11194114814173908,-0.2943764848891304,0.6212021706402172,-0.2653629634673913,0.11139505691630427,0.6178702288971735,-1.1195949730652168,0.3749116060054346,0.014948660141304353,0.11924262638043474,0.01853799827173916,0.13042432119021735,0.341121926375,0.05544602351630437,-0.008975446744565227,-0.28392997048260865,0.34545379314565205,0.32346324267826093,-0.4685499132717391,-0.5640315045869566,-0.6944040837717392,-0.25307331816195644,0.37768767030434797,-0.27479471558695634,-0.6009950017217394,-0.09955469483586954,0.027266804239130474,0.6982400934065218,-0.48173673862826094,0.021350219184782606,-0.2551488972663044,0.008034161228260948,-0.1083040511956521,-0.0666176176597826,0.3032890219671739,-0.41796100066304376,0.6365808834097827,-0.22255024857717387,-0.4027393656163044,-0.4888995600869567,0.4858486987173914,0.9102436909184778,0.6441193224493477,0.16422089101630427,-0.42557852951086966,-0.12050759468478259,0.43155352028913047,0.44237067701891325,0.33926927171739135,0.04723433905434786,-0.5675097936820651,-0.2874774539673912,-0.8435423253913042,0.20013570138043474,0.3562607835326086,0.4240170906895652,0.7154635674565217,0.4429903314239129,0.8525129150054348,0.570081942696739,0.4040016798043478,-0.8003142152391303,-0.34863521182173934,-0.29600314238586967,0.8089354281706522,0.014358753673913024,0.2236798934728261,-0.14450674357608675,-0.016186070184782596,-0.14272513365217393,-0.20825852201956527,0.4716828132923913,-0.80505735346087,0.6250394672934781,0.6139710236304348,-0.10227615018369565,0.09951155753804353,0.04827475030434782,-0.6820799467423915,0.32370198143586976,0.24255141479782596,-0.7657524453336955,-0.02178329973913044,-0.1293207728913043,-0.10450274469565214,-0.3717048641326086,0.14974859203630436,-0.09848440254891307,0.056135709613913065,-0.4065727260456522,-0.2038273630184783,-0.23674691402934794,-0.3681825555195654,0.3172178759673913,-0.17403688015217367,-0.06284485289021735,-0.3555068643442393,0.7831490394673916,0.23065121140217384,1.0797071195467391,0.10733215885217388,-0.3891805289954348,-0.7650012437717391,-0.2752550205119566,-0.46914997563043487,0.27952321523913043,0.6657422603326086,-0.2157813605108696,0.08204116711304346,0.602823910521739,0.17240650551086945,-0.5893368945815215,0.2645606864755435,-0.19172569594130434,-0.5602850754891303,0.1300445859999999,0.6788259246060874,0.3019720160815218,-0.011733054952173893,0.5624267467608693,0.41331513694413047,-0.24846965625543477,0.32820960138586946,-0.11853260899804345,0.8291069192173911,0.20374618251630425,0.16673794326956518,-0.34785922497826105,0.24079806410434781,0.5324706261086957,-0.33957744683402197,0.6112437028152172,0.16869450646739126,0.32428278821739137,0.6589172407782606,0.28242838796739117,-0.24434573986195646,0.12698526793260886,-0.26214797380869564,-0.058868329782608676,0.35895966672826096,-0.18822271346486943,-0.4164358058663043,-0.44927708370652164,-0.6479788043423911,0.2265298157195653,0.598603564706522,0.1420201788478261,-0.6512259867673915,0.23564512658510867,0.13724630314130432,-0.39759371948913036,0.027154999641304436,0.7405655531304347,0.629429231771739,-0.39354025295652173,-0.46656784302173904,0.04526645988260866,-1.33063073375,-0.7369777243586956,-0.7314519915869563,-0.5091836123086956,-0.4220604208152173,0.12821009700978256,0.09852791154782617,-0.47480361490760853,0.4857727874913045,-0.14801538432391304,0.3941548086717391,0.08469047867173918,-0.1513405605108696,-0.4128679064576087,-0.8353587752500004,0.014330397065217382,0.6891885963173913,-0.07428429556521739,-0.13001471413043494,-0.04248561663043476,-0.012407307185000035,0.532089867655435,0.1742907763315218,0.1724866543804349,-0.07975532356521728,-0.8116889688586958,0.05529617838043478,0.11291772501739133,-0.3459366359239132,-0.1347319200804348,-0.5943910022860323,-0.3997764775652174,-0.6726179069315219,-0.9019028168097825,-0.338285251051087,-0.35659217636739127,-0.3616509785108697,0.3412854667717391,0.38132100001086966,-0.3073442570760869,0.5506068507554349,0.6434235820836957,0.32648730285000005,0.5010632130619562,0.45180836192391316,0.2984886541521739,-0.13366198385217398,-0.06629978591086964,-0.20474438429347822,-0.6475015532152172,-0.2966049549456521,0.19071242051086942,0.2597853682532609,0.5343403617221735,0.3205984496630434,0.03598347456739127,-0.39454388044130445,0.3115001273206521,0.17035529041630443,-0.42958303633695666,0.5722315263108695,-0.03356558393478255,-0.5283446041086958,0.48842797767391305,0.33379509840217386,-0.06380776468478261,0.05669533466304343,0.1886339306956522,0.4891675845619565,-0.5122321247499999,0.2539427410760869,0.3740063485869568,-0.9750049146304351,0.11801107814456523,0.3307262502336956,-0.24120730832608708,0.575409341065217,0.5623504482608693,-0.19426888664130426,0.05517142995065218,-0.14455231490184792,-0.05759916737717391,-0.31909113520652177,-0.4192985126402174,0.28737632390652185,-0.28950925413043466,-0.13995608122826075,-0.050303650455434806,-0.43056955832608695,-0.7781129192206521,-0.3164614962499999,0.09855486864782609,-0.28311313958695655,-0.04709732101086956,0.1056153054336956,-0.29120542523913034,-0.7277824196706518,-0.023741526771739168,-0.13104767826630434,0.3615385906902172,-0.1458793901413044
"Hi @khusheekapoor I went through the notebook and I really liked it. There are questions and clear analytical answers, which should be nice to readers.
Could you just let me know, considering that both clustering methods (KMeans and Agglomerative) yielded almost identical results, what are the algorithm differences between both?",0.5651045469069766,0.004537862860465083,0.0030095402976744044,-0.24218010269767454,0.42881813325581386,-0.04787490359069768,0.1616003616883721,0.27211771799999995,-0.28094849986976744,0.018126448395348847,-1.0699043143255815,0.4428511730813953,0.2188023160232559,-0.5943495188372095,0.873213196511628,0.028209207906976695,-0.86045387327907,0.46089077441860465,-0.618728375255814,0.08799521351162783,-0.2545111672093024,-0.8431064324186051,0.6850490119302324,0.8119918017674421,-0.6774426357209301,0.2673422309534883,-0.3006351834883719,-0.0239705442732558,-0.24170171090697687,0.04483446306976743,-0.6072821970232558,0.2752703497441861,0.05168275944186047,-0.25325260674418604,-0.5525156858999999,0.829205009372093,0.1404026561488372,0.3309015590465116,0.09803365734883725,0.917045000348837,-0.010386978139534887,-0.020114659162790652,-0.26416811437209303,0.7102364723255814,-0.2572397736744185,0.48618886297674413,0.9099543238139536,-1.1771353925581394,0.37404617383720934,-0.19086267311627905,0.027720504790697726,0.0904368116976744,-0.14347718888372096,0.7063733947348837,-0.0372303663348837,-0.24991720022093022,-0.17667069053488374,0.4006272523023257,0.0627182482906977,-0.41066061658139524,-0.41239961444186035,-0.7269281826744188,-0.42243281476744204,0.23408816109302322,-0.16582517619767442,-0.872218325651163,0.15861517281395343,-0.011238572093023274,0.6398570993720931,-0.79635028827907,0.15191847269767433,-0.27010102474418607,-0.4880021908604649,-0.2882502584418606,-0.21526475348837204,0.5271785058837213,-0.43973164925581404,0.9951816924418605,-0.029416765744186033,-0.17531297986511626,-0.5068270421627905,0.8229509564418602,1.3087876182093021,0.5377958678372092,0.24530796748837203,-0.27509608195348834,-0.014230574768372096,0.30790711976744195,0.6739069560465117,0.1629781572093023,0.016700713348837198,-0.37645917990209304,-0.3025262028604651,-0.73378294872093,0.02809210981395344,0.577471969651163,0.42569640516604645,0.7628387860232558,0.5125128034744187,0.8226112088372092,0.5515905223255814,0.3960422906279069,-0.5824710511627907,-0.11102624146511632,-0.07552427995348839,1.143204052348837,-0.017011903139534868,0.499238403255814,-0.13014789225581394,-0.046349692465116284,-0.18351936721534887,-0.345001514827907,0.6257822379627908,-0.8280784967674419,0.670653235023256,0.295677546511628,-0.4970103626511627,0.06832017734883716,-0.3953422379534885,-0.5299655389953489,0.06365800796744185,0.5457572577906978,-0.45962527871395353,-0.662082085116279,-0.012255810069767434,0.2936463799558139,-0.778389040232558,0.23051876407767444,0.004105110872093011,-0.23498628376744182,-0.615556189360465,-0.01033603771395349,-0.1620329643023255,-0.4277542427093024,0.4408731077488372,-0.048279358302325555,0.3053542599627907,-0.25443419186046506,0.9726312043255816,0.19625463359069772,0.9832644242558142,0.6963763733488372,0.10894137930232553,-0.7435876915813953,-0.4641490089534882,-0.10001698948837205,-0.16611350841860456,0.03950924538604653,-0.24157008075581396,0.21414661609302324,0.2773689994246512,0.6062588145116279,-0.7067930897581396,0.09947869690697671,0.0589962529767442,-0.5487788829767446,0.04652534188372092,0.8098804116744184,0.1574742825930232,0.2955860991511628,0.4548631030000001,0.4541130917674418,-0.10897104475581386,0.1861669280930233,-0.09322605939534884,0.7205780242093023,0.01195023752325581,-0.07603125883720935,-0.2222172874186046,0.3885910323953488,0.18257143930232558,-0.2213469073023256,0.7666189367441857,0.35042748146511615,0.2164730457209301,0.491461909916279,0.18480345262790698,-0.08408662956511628,0.26638880155813954,-0.2997751705441859,-0.29415559225581406,0.06012256779069767,-0.2799837111162791,-0.21331047551162793,-0.13500583111627928,-0.48728819837209314,0.259767763651163,0.7661864457441863,-0.3107679804418605,-0.6429231424651163,0.39451936706976737,-0.014383658953488343,-0.26027768739534884,0.01139697220930234,0.9734326320930233,0.6870351235813955,-0.34813879109302337,-1.0120463551162788,0.027871530186046527,-1.2846413612581395,-0.49684833179069765,-0.8022572002093025,-0.46617263747441856,-0.44173498423255814,0.9078856105581398,0.22775223139534873,-0.7834427535348838,0.6925560963488373,-0.04591721504651166,0.3444635755581395,0.18273768076744185,-0.1325375503255814,-0.28720703184651164,-0.5280702078372091,-0.23987009325581396,0.21751637386046513,-0.10276890739534889,0.02239106960465113,0.047027251976744185,0.3074249812093024,0.6316779529302325,0.5091829379069768,-0.06217136927767439,-0.2298092048948837,-0.9238010164883717,-0.03155960258604644,0.016524217037209302,-0.508900007627907,-0.09977241533720925,-0.4636729470631394,-0.6576922492093026,-0.37129766213953486,-0.8914708202325583,-0.16921987983255812,-0.24537908050697668,-0.4739470712325579,0.16646215888372096,0.13827530130232557,-0.4154570969069767,0.6635334932906979,0.670672805403256,0.5253861356558143,0.5375088430465116,0.6410058818604651,-0.007503688372092963,0.04470155434883724,-0.11175987306511631,-0.24897942555813946,-0.49993782072558146,0.04791770901627909,0.3802095381558139,0.14187258937906977,0.9441255813986046,0.3535106700930232,0.23364473858604656,-0.6697459294651165,0.40906699470930225,0.17898934695348845,-0.5589236596976745,0.40450894443255825,0.2807985633720931,-0.4083198116279068,0.5997264078139535,0.40829497355813943,0.26526411958139534,0.19913025237209306,0.31728132679302323,0.20262178467441874,-0.2361588529302326,-0.047868930325581385,0.44148229390697663,-0.8216315980488371,0.15130421279069772,0.22892497047441862,-0.2853415711860464,0.8717888521395347,0.3623945181627907,-0.22841768116279082,0.13705208955348838,0.14276985234883732,0.36538248946511637,-0.5038991228837209,-0.6759746063534883,-0.05407325241860465,-0.1920419211627907,-0.11102750799999994,0.2827690579767442,-0.6017051239069768,-1.0055109735186045,-0.19337709713953474,0.1757868066511629,-0.43493109732558144,0.09999600995348834,-0.029153034786046507,-0.5103866686046512,-0.6513115186511628,-0.022628674186046485,-0.2605235909767442,0.14151852330232553,-0.1724497937209302
"@seabreeze, ohh that so bad they are treating kaggle as a social media platform.",0.09567789257142854,0.012836604428571438,-0.058259077642857156,0.03323616514642859,0.11355245764285712,0.2385455064285714,0.5260831067142857,0.35110253428571436,0.34866664735714287,-0.0798481352142857,-1.2523102994785713,0.31959257157142856,-0.16790097999999998,-0.0665687892857143,0.7412783451428574,-0.5265139171428573,-0.786184272,-0.041684528571428535,-0.32515170600000004,-0.0428537364285714,-0.359565794,-0.8439811721428573,0.9458253264285713,0.9438542824285712,-0.08281974792857147,0.27525156979999993,-0.7516408390714286,0.21847583564285714,-0.28840364942857144,-0.5936687890714286,-0.7302443240714285,0.24173252564285705,0.37698776542857143,-0.6526619528571428,0.05300784285714283,0.5064935871428571,-0.034303394750000014,0.9678691064285713,-0.16711809999999996,0.8170915534428573,0.19916425057142856,0.629648119642857,-0.39673342864285704,0.9584355129999997,0.04168345075,0.18270585571428577,1.140704373785714,-0.93361856,0.31715712071428576,-0.32797758314285724,0.4606580114285713,-0.16839780428571435,-0.2610640212142857,0.5503942347857143,-0.30374743614285704,-0.018013461428571437,-0.4281693438571428,0.9962436611428572,-0.019119640599999998,-0.11995382802142851,-0.30221332999999995,-0.5672714722071429,-0.801225717857143,0.3344724555,0.01823960814285715,-0.8475830467142859,-0.18765631885714282,0.4397391175,0.27702706400000005,-0.7200552128571427,0.0586031810714286,0.10943117092857144,0.3055214742857143,-0.1703413675,0.3415820271428572,0.26385377914285735,-0.39259203792857145,0.5530444782142856,0.12411250457142856,0.40397448685714293,-0.4403429964285714,0.4433032489285714,1.2268439333571428,0.357943121,0.2797091500714285,-0.4121611608571428,-0.16680905121428571,0.7011128745714288,-0.09215139500000007,-0.05064287457142856,0.2612253029285714,-0.5246413681428571,-0.062457905642857144,-1.23938407,0.46960883714285717,0.37653943342857144,0.6192243589999998,0.6121602555714285,0.7152938661428573,0.8148877780714289,0.5374077322857144,0.6038636780714286,-0.661617437857143,-0.3393230746428572,-0.1826545495714286,0.5493086985714285,-0.004486217214285703,-0.36298657500000003,-0.35406743642857136,-0.06676211142857144,-0.13062337514285713,-0.2801418569285714,0.44930749099999995,-1.272139692071429,0.8349800064285713,0.48627448957142855,-0.4044061292857143,0.0637023807142857,0.5410661384285714,-0.7465423947142857,-0.032827932028571434,0.1151584473571429,-1.0200402915714286,0.30693350785714285,-0.1703965371428571,-0.1935066920714286,-0.6831975404285714,0.1563218586428571,0.0050504500000000075,-0.5872052603571429,-0.6514590880714285,-0.43505855614285716,-0.32256121492857137,-0.654487540357143,0.3262894539285715,-1.045749451,0.3322536603571429,-0.23763408864285715,0.9992329117142856,-0.32892541214285714,1.2106290907142854,0.5336472378571426,0.7031642671428572,-0.8271338197857142,-0.03462368964285711,-0.4263881007142857,0.49323256257142856,0.4315501160714287,-0.16731360857142857,0.37005726835714287,0.27226006214285714,0.7339226507142858,-0.8197978419999999,-0.4256685671428571,0.15793075414285718,-0.4574754017142858,-0.16253430235714283,-0.13573542178571432,0.12870943610714283,-0.20418588971428572,0.4690496250714285,0.6356368214285715,-0.2385652984285714,0.42432967499999996,0.44973519832857145,0.7603414346428572,-0.8099255582142858,-0.362108063,0.32054394428571426,-0.08656453442857145,-0.25553831571428576,-0.5043218235000001,0.9765107600000001,-0.3405389803571429,0.16297094928571432,0.38114000369999995,0.4084228347142857,-0.58394274,0.40959703957142857,-0.48072440071428574,0.18401178217857142,-0.38471235192857145,-0.4606987335655715,-0.0621818567142857,-0.5379989250714285,-0.6248440307142857,0.089304765,0.973342722142857,-0.13568527235714292,-0.37996326212857134,0.7361566637142856,0.025380538928571467,-0.3974701664285715,-0.03192531764285716,0.30271720857142864,0.6692731457142856,-0.6080187674357143,-0.31731796714285715,-0.115193896,-1.4955202102857144,-0.46260653171428573,-0.4522556830714285,-0.2762282328571429,-0.5366928264285714,0.6394253685714286,0.3186997385714286,-0.22489878178571435,0.6348422570714286,-0.41064374478571425,0.30299606142857144,0.13243024107142856,0.23506026857142864,-0.43095142578571427,-0.6208717607142856,-0.4121294592857144,0.9537913442857142,-0.13155326857142857,-0.5044709150357142,-0.20279137114285714,-0.04301385971428571,0.6914045756785713,0.48699586142857154,0.17199144257142857,-0.16124793999999998,-0.8984897497857143,0.04456424285714282,-0.43409726428571427,-0.12687920642857142,0.09254843821428571,-0.4708526288571428,-0.7220620097857143,-0.44883478635714286,-0.7519029957142855,-0.1911771712142857,-0.09731615321428569,-0.7083884202142857,0.43363010757142856,-0.2884762128571428,-0.02150120928571419,0.5514045217142857,0.7946634498071428,0.8274290324285716,0.6267060361928573,0.5758475849999999,0.35307871571428573,0.07392018142857144,-0.04904196057142855,-0.348054437857143,-0.42200943964285703,-0.05776136537428573,0.23059003633571432,-0.035630964785714266,1.269803823714286,0.6367658917857142,-0.14382900642857144,-0.16457436839999998,0.2664119864285714,0.16232600342857142,-0.7095043825714286,0.198271142857143,-0.5438068447142858,-0.5974271104285714,0.6461879278571429,0.9037661297142857,-0.25588595107142853,0.3159203478571429,0.2273229493571429,0.7594722321428573,-0.8568686364285715,0.2717634368214286,0.39388469571428564,-0.4376162197142857,0.47038539571428567,0.28122524071428573,-0.2681380673571429,0.5230325110714287,0.7796882107142858,-0.3646083229714287,0.16802888785714284,-0.056987285714285706,0.12956153014285715,-0.48863049849999995,-0.17747487071428567,0.10129240235714279,-0.2782566528571429,-0.31630923928571436,-0.4902615735714286,-0.8279247212142857,-0.9262535238571429,-0.18000805357142863,0.1628037457571429,-0.6808093947142859,-0.17128677642857143,0.02435970214285713,-0.10487332957142857,-0.769253989607143,0.03858741928571429,-0.1808583120714286,0.8553438290428572,-0.4328596757142858
@bluewall what are you looking for?,0.7847478446,0.15287627600000003,0.13563136400000003,-1.324832266,0.6133833020000001,0.03769913599999995,0.16502811999999992,0.2930946260000001,0.10029558000000005,-0.733631594,-0.9510088800000001,0.5772995639999999,-0.6748960439999999,-0.2902091933999999,0.2865551884,-0.5191815660000001,-2.4039442600000003,0.4687999359999999,-1.124119306,-0.32895045079999996,-0.1784340779999999,-2.2344461119999997,0.8467188439999997,1.099297924,-0.449274716,0.43117648,-0.4929426840000001,0.1262926199999998,-0.3120149040000001,-0.275378856,-1.0578974714,0.5021747520000001,-0.021491921999999962,-0.748977706,-1.6001513040000002,0.9495917739999999,0.626725678,0.71517846,-0.772034456,0.994446362,-0.40813529000000004,0.0074129439999999925,-0.9013106399999999,0.6249900024,-0.19630147999999997,0.42151668000000014,1.45737138,-2.0723483000000003,0.014233218999999964,0.24507850599999995,0.38206664,0.261564284,-0.24635492600000006,1.0278186352,-0.15763567600000003,-0.2011983599999998,0.546988152,0.8064817520000002,0.08887532599999999,0.19896520000000012,-1.535805484,-1.490261828,-0.49251934799999997,0.6868574159999999,-0.518168106,-1.656679124,0.470202744,0.08642154600000004,0.9116799459999999,-2.066219958,0.13803323939999998,0.317846684,-0.7630614399999999,-0.95833898,-0.28287415999999993,0.4122036176,-0.7219361822000001,0.8767376060000001,-0.221522614,-0.23519447106000002,-0.9826848000000001,0.599994774,1.3953054059999999,0.3769084353,0.762207358,0.02964948799999998,0.23350854400000004,0.50994536,0.9764915893999999,0.1842380564,0.6590658000000001,-0.09540010600000005,-1.2598303039999998,-0.95346288,1.0025279364,0.755553869,1.191447276,1.04879928,0.17063440199999996,1.111505108,0.5063307899999999,0.6623143974000001,-0.17859164399999997,-1.2451809511999998,0.182390224,1.40452932,-0.01806442399999999,0.32582008800000006,-0.10838066199999993,0.5390484360000001,0.08744253399999997,-0.39193196620000004,0.9988918720000001,-0.3259879799999999,0.47255590000000003,0.5474101599999999,-0.24285812900000003,-0.8171345054,-0.795552728,-1.3092512719999998,0.274627732,0.9317063912,-0.8188629788000001,-0.281155874,0.593106676,-0.038042995999999954,-1.349610238,0.8672782449999998,0.13235012599999996,0.13452451,-0.46721127000000007,0.15339842166,0.31300075999999993,-0.9567960120000001,0.95932546,-0.55370356,-0.07334441600000004,0.22722873199999993,1.47648216,0.15962653000000007,1.66255802,0.79000208,0.16110073280000003,-1.590174476,-0.971296061,-0.9664400780000001,-0.59610948,0.08887898320000005,-0.09719894999999994,0.73163316,0.5427513359999999,0.86816034,-1.6377290800000002,-0.359221938,0.7490989619999999,-0.23318445200000001,0.29187629080000005,0.8755337860000001,1.44014628,0.26315215899999994,0.5857568259999999,0.860951214,-0.5737385079999999,-0.061619177199999965,0.274546008,1.0041128379999997,0.035503450000000034,0.36773002800000004,-0.07615755600000008,0.920978038,-0.537006516,-0.8940358320000001,2.04170825,0.10889113200000003,0.116184058,0.704056516,0.8131894012,-1.103877316,0.6681525380000001,-0.562814772,-0.46112407999999994,0.09767845700000002,-0.628798746,-0.627161356,-0.6051283739999999,-0.7831063739999999,0.6503264260000001,1.071210866,-0.2956474562,-1.310225898,1.33396448,0.016821514000000003,0.2623861700000001,-0.489913132,1.3483973414000003,1.2849786939999999,-0.077505812,-1.44617697,-0.29276018000000004,-0.9389492627999999,-1.4264983,-0.47572641199999993,-1.047683618,-1.142166228,0.8163537479999998,0.23562629599999996,0.12535699399999994,0.7668305070000001,-0.19595974400000005,0.06595897999999992,0.778471194,-0.17115808000000002,-0.08713083999999997,-1.476123654,0.06362151999999992,1.2224591400000002,-0.24543624599999997,-1.1353465960000002,0.087392124,-0.0057949939999999865,1.0450336812,0.634912954,-0.565990606,-0.2581603406000001,-0.623127556,0.12570195200000006,-0.7925946366000002,-0.323606628,-0.5403125625999999,-0.8285626688000001,-0.7117827400000001,-0.888064748,-1.8872195,0.51124164,-0.954438784,-0.5385565600000002,1.005903434,0.680117096,-1.125477218,1.232969728,0.7756748339999999,1.1491499799999998,0.73053652,1.9172495320000003,0.97465197,-0.0707099486,-0.1790596599999998,-0.897376388,-0.535886,-0.3120341244,1.0706884840000002,0.2907332100000001,1.83113888,0.8833457339999999,0.8789011719999997,-0.9550491820000001,0.717677352,0.4578699319999999,-1.17264825,1.577395096,-0.36972007000000007,-1.278028386,0.92850541,0.73211917,0.28135517,-0.13851940399999993,0.010267904000000017,0.8193679680000001,0.051156705999999996,-0.056923840599999984,-0.049794031,-0.21702592959999994,0.5732676520000001,0.6884128730000001,-0.48313010799999995,1.59165716,0.6587412079999998,0.43388435599999997,0.15108070079999997,0.48985095600000006,0.026732057999999982,-1.0407459319999999,0.012300459600000035,0.47952754,-0.5594434240000001,0.21283576800000006,0.71239479,-1.66397312,-0.952503114,-0.250759172,0.9430059020000001,-1.178071004,0.834728838,-0.8136372719999999,-0.2933177159999999,-0.94955084,0.18810264900000004,0.23383870399999998,0.5225608904000001,-0.13604235400000003
While we're on the topic of social media…,0.558037364888889,-0.30597698088888886,-0.22089865111111112,0.1375162366666667,0.5206381007777776,-0.005615614444444429,-0.10404384222222222,0.6145578588888889,0.5778675,-0.6201184431111111,-1.461738696666667,0.5920235852044444,-0.5249971427777778,0.2027720060000001,0.5022049333333334,-0.5785272048888889,-1.6621785602222223,0.44928686777777777,-0.49487274333333325,0.08382438477777777,-0.2443507556666666,-0.7224064633333332,0.2662796600000001,0.4559387960000001,-0.20611399855555557,0.5140614280222222,-0.36227254777777773,0.1737192705555555,0.22019074422222223,-0.8633626444444444,-1.3000739444444442,0.2975831366666666,8.544222222222558e-05,-0.7908967618444444,0.14969818044444447,0.1831360955555554,-0.07892187777777775,1.0130802533333334,-0.20053160888888893,0.5694648811111109,-0.27197265866666664,0.537736128888889,-0.3970020123333333,1.0238387311111112,-0.054630986455555565,0.4184032135555555,1.2481385333333335,-1.6782011622222222,0.75821738,-0.21070064444444453,0.9682442344444444,0.016405832222222225,-0.2140446333333333,0.6645727211111111,0.08153897555555559,-0.6171252955555554,-0.07786772199999996,1.1176351733333334,0.7003208857333333,-0.36138048777777776,-0.44176489333333346,-0.7997594433333333,-0.19250820444444447,0.7533996988888889,0.03330685111111106,-0.6415713725555555,0.6175162599999999,0.9399161222222223,0.6344485004444445,-0.6815968666666667,-0.4278918044444444,0.30490233544444445,0.5792746855555556,-0.7180029466666666,-0.07285826777777776,0.16283179511111115,-0.10807431222222223,0.8795891866666666,-0.31925247000000007,-0.4008685577777778,-0.753884360111111,0.4003519000000001,1.916907567777778,0.053723094444444425,-0.00030208177777778385,-1.2455750277777777,-0.3580082602222222,0.14723277155555556,0.04121965666666667,0.595951031111111,0.4849045733333333,-0.36214151555555557,-0.0574239822222222,-1.862901548888889,0.3045807214444445,0.7012463037777777,0.7380044599999999,0.5617563235555555,0.2344376833333333,0.4601829088888889,1.0558639699999999,0.31367202111111103,-0.7024922111111109,-0.7060887766666666,0.041782511111111115,0.11432973333333335,-0.6892037862222222,-0.2506679622222222,-0.4122774155555556,-0.20120567666666658,-0.039861867777777706,-0.33613344333333334,0.40405920044444443,-0.8330683003333331,0.8014803466666666,0.6409152155555555,0.2843148788888888,0.10817340000000003,0.18788569588888893,-0.5966150458888889,0.09270619488888891,-0.6708116218444444,-0.9813997899999999,0.9481751222222221,-0.8366969833333333,-0.1831295655555556,-0.055419633333333364,0.03700474000000004,-0.22931435555555554,-0.17475847711111112,-0.5919867144444443,0.14413346877777786,-0.46268446648888883,-0.9432821622222222,-0.02353866222222222,-0.5756368471111112,-0.0033470809999999553,0.20466644444444443,0.9919872488888889,-0.2045048322222222,1.4121725555555553,0.1476451477,0.5422014817777778,-1.683668698888889,-0.3396328093333332,-0.725227591111111,0.6785186538888889,0.6954128688888889,-0.9438061077777777,0.06341792388888884,0.7192886799999999,0.8961323111111111,-0.8675915633333332,-0.3506625587611111,0.06288025266666664,-1.0040515077777779,0.08381742666666661,0.1682053544444443,0.44780873555555556,-0.40864550000000005,0.41955248633333353,0.4773033188888889,-0.26670816666666664,0.4232533546666667,1.1047497577777776,0.8839495244444445,-0.7221686415555557,0.10707201333333335,0.3352242488888889,0.05268603111111112,0.20023740555555555,-0.5730950944444444,0.6048809749999999,0.06911320666666672,0.2257301722222222,1.0472203844444445,0.7285536326666666,-0.2471587322222223,0.19535198444444443,-0.3088039355555556,-0.2861143261666666,0.7264652900000002,-1.0780761300000001,-0.23000879066666663,-0.3273859951111111,0.0791778233333333,0.8551692744444445,1.17885608,0.8118630417777778,-0.9261953222222223,1.1806217255555558,-0.04294302333333344,-0.4335722255555556,-0.3725075133333334,0.40468522,1.298910312222222,-0.13366466555555556,-0.05824735777777776,-0.06858669,-1.1981017833333332,-0.09694609555555556,-0.7139397855555557,-0.29655007777777775,-1.1864272522222223,1.1723083051444447,0.4550429322222222,-0.2858249244444445,1.1835858733333333,-0.14020584888888893,-0.08376267444444448,0.7740652766444445,0.05057189666666671,-0.5638568133333333,-0.5024007244444445,-0.0004142977777778069,0.2852564455555555,0.4881022333333333,-0.5085591797222223,-0.04419293777777781,0.5023860711111111,0.4505155405555556,-0.22675198407777775,-0.1300186855555555,-0.5997137811111111,-1.1040211895555556,-0.10075500555555554,-0.4356233183333334,-0.23254927888888885,-0.03084032611111111,-0.7437544577777777,-0.41082394555555557,-0.7860459022222221,-1.4396891703333332,-0.3086768022222222,-0.85100564,-0.85248749,0.44034538333333334,0.6924937055555556,0.1477483033333334,1.0077197588888889,0.7087129159999999,0.2391212444444444,0.7237563433333334,0.45800469777777786,0.5536004045888887,-0.31641055444444444,-0.004378843333333376,-0.4477122211111111,-0.6950032888888891,0.1685953894444444,0.46672216133333333,0.017726297777777757,0.3242014137777778,0.10970385911111112,-0.3086957082222222,-1.2471344666666666,1.0844065711111108,0.3265380481111111,-0.47508918000000006,0.9810610222222221,-0.2599733123333333,-0.7808954833333333,0.6818010655555555,0.7778467355555555,-0.5879725766666667,0.882158979,-0.0062854222222222195,0.38988931622222217,-1.158121282222222,0.08757424999999991,0.88543058,-0.4195983122222222,0.7971568244444446,0.014315968888888907,0.19073252955555553,1.034301441111111,0.9828314644444445,-0.71299837,0.1771014966666666,-0.6245428911111113,0.05678527,-1.0125253455555556,-0.0720657988888889,0.3925296022222222,-0.37849461111111116,-0.05214638111111095,-0.724053958888889,-0.6606773131111111,-1.0777024477777777,-0.6513149166666666,0.3670221922222223,0.09043086499999996,0.49509915888888906,-0.5440044933333332,-0.05861518999999999,-0.7183743138333334,0.22613361333333326,-0.005998742555555585,0.2615973933333333,-0.613043307111111
"Probably, definetely yeah.",0.6556613210000001,0.6389018214333333,-0.322543678,0.12109153333333333,1.5469052939999999,0.05441404333333331,0.4806058033333333,-0.23954054000000002,0.438380854,0.24285678,-0.4019881533333334,-0.3820226166666667,0.378071832,-0.45114578,0.8520328620000001,0.29602100000000003,-0.4293551033333333,0.7922195423333335,-0.36802047,-0.06635902,-0.30369059866666664,0.026094913333333348,1.3829266766666668,0.059992302,0.4524453733333333,-0.6613995333333333,0.009294365666666665,-0.019067889999999983,-0.20652521833333334,0.41142362666666665,-0.17834193833333334,0.5128467566666667,0.15858883633333332,-0.26107365666666665,-0.5556905396666666,0.17170973999999997,0.7549859633333335,0.4567337266666666,0.13988250666666666,0.41718509100000006,0.09294419,0.09239439333333337,0.44012125,-0.40322067999999994,-0.41628757299999997,-0.1924734966666667,0.13134699000000002,-0.3207663353333333,0.30752916199999997,0.0846092466666667,-0.24470360666666666,0.06984982999999999,-0.39246609000000005,-0.3130261066666667,0.41675772666666666,0.3737534976666667,0.60010374,0.4478924766666667,0.3112158766666666,-0.54394901,0.09281963399999998,0.0853876433333333,-0.6298207666666665,0.06654186166666669,-0.19838108,-1.0155352124666666,0.3512148670000001,-0.26863075333333325,-0.21066817000000002,0.4387341513333333,0.24302028666666667,0.008159283333333328,-0.3314811866666667,0.44574193300000003,-0.5542139620000001,0.8039943766666666,0.23944216000000004,0.44065117066666665,0.17073819599999998,-0.22785481466666666,-0.5456924866666666,0.19288650333333332,0.7549687966666667,0.31058557100000006,-0.07785643043333333,-0.05340152,-0.07119896333333334,0.9273812000000001,1.2572597766666669,-0.6441639354666667,0.5257146433333333,0.21555910533333333,-0.38533288,0.2904039693333333,0.1584823533333333,-0.2603649,-0.05239914266666664,0.05780439666666668,0.29834088533333336,0.42237853333333336,-0.8646807766666665,-0.2751881400000001,-0.04612556666666671,0.4186559983333334,0.881322897,-0.04043056333333333,0.04298164800000002,0.5088601083333334,-0.051567980999999985,0.6256207066666667,0.5030755615333332,-0.2255420966666667,0.19168623333333332,0.26521788500000004,-0.06912801666666667,0.056327363333333325,0.0898620072,0.8289333279999999,-0.4927580216666667,0.18368135,0.096712329,0.61639241,-0.3402862783333333,0.09721777043333335,0.69340007,0.4241565653333334,-0.1842327,0.2795503156666667,-0.06555156266666672,-0.5252202666666667,-0.12441068233333334,-0.6165756866666666,0.4754035966666667,-0.21774566333333334,0.37464436166666665,-0.6866675133333334,0.09150337999999998,0.03562033000000002,-0.4789103666666667,0.26076800999999994,0.5266504766666666,-0.14550776,0.4677262633333334,-0.1763867166666667,0.4122868083333333,-0.19729266666666667,-0.5257944903333334,-0.23428795666666669,-0.47583858999999995,-0.21934327333333334,-0.13274038,0.37790759999999995,-0.5026912966666667,0.40535113333333334,-0.62281045,-0.9523311680000001,0.020339874333333306,-0.4743624733333333,-0.38493043666666665,0.22308556333333332,-0.3263641966666666,0.22883115333333334,-0.21428546333333334,-0.18722203533333334,0.08126224133333333,0.34062975666666667,-0.6459730220000001,-0.36704066100000005,-0.1848716766666667,-0.02542695600000001,-0.26661856,-0.10168893333333334,0.09916569100000001,0.24769463666666666,-0.3452903766666666,0.36625425666666667,0.023327316666666664,-0.28606071466666666,0.1400175233333334,0.2857671676666666,0.5288459716866666,-0.8025503583333334,-0.09912366999999993,0.4250540566666667,-0.019681165333333337,-0.01869136333333334,-0.43620696999999997,0.5113890933333334,-0.13055584000000006,-0.3050692566666667,0.22914470666666667,-0.15913088233333336,-0.12749366666666664,0.17388272000000002,-0.48605704,-0.05280494499999999,-0.1615331733333333,-0.7683276216666667,0.15214285000000002,0.0833929233333333,-0.1358350033333333,-0.8654703199999999,0.272625415,-0.2724358,0.7240594366666667,0.17965448666666664,0.18551640666666666,0.07182461,-0.5396971383333332,0.27975886,0.18797575800000002,0.02203855,-0.15308406999999996,0.07097139666666667,0.018038601666666664,-0.4544419213333333,-0.3990299033333334,-0.33815367999999996,0.46134816,-0.013347956400000005,-0.13451602333333335,0.12727959333333336,-0.28052448333333335,0.28846968000000006,-0.7926733333333332,-0.16770773819999998,-0.1493550153333333,0.38399703333333335,-0.23017146666666669,-0.26471793,-0.5812251666666667,0.33940191000000003,-0.40828957,-0.4713590566666667,0.41838637333333334,0.3355482916666667,0.187089147,-0.01668631666666667,-0.27850576000000005,0.5876762333333334,0.31207456333333333,0.7876086253333333,-0.026711728,-0.37654361433333333,-0.2413503996666667,0.021320420000000034,0.6754624156666665,0.39898272,0.03164534666666665,0.14099852999999996,-0.6111015933333334,0.24297443666666665,0.2522432666666667,0.81961503,-0.036454226666666666,-0.9920820466666666,0.11831622999999998,0.6203981266666666,0.2528306733333333,-0.48719856866666666,-0.11163534666666663,0.072823103,1.6269575766666666,0.6779998800000001,-0.251127622,-0.21643376199999995,-0.1786919556666667,-0.034959546,0.6225843733333333,-0.18259643666666667,-0.8357188400000001,-0.4061306603333334,-0.12005538166666667,-0.058495767000000004,-0.52673907,0.06942506,-0.46836777246666667,-0.23995844333333335,-0.07045989333333333,0.85078848,0.2608162646666667,0.165531085,0.05836399666666667,0.16130607133333333,-0.7326866400000002,0.6074967133333333,0.055726569999999996,-0.6119093546666667,-0.3169196653333334,-0.41178601333333337,-0.056715083333333326,0.8547474633333333,0.397902118,0.21338598566666667,-0.3962339406666667,-0.4537873553333333,-0.571048211,-0.36036060666666664,0.8119143516666666,-0.26826166333333334
"If you want to look the theoratical part of the DL, you should check this clear list.  
👇👇 
https://deep-learning-drizzle.github.io/index.html#reinf",0.5956225331521737,-0.2168022939565217,0.14566255682608692,-0.5424661091304347,-0.23400535004347817,0.4043349627695652,1.2428822917391305,0.5360797301739132,-0.22050488652173922,-0.39176536679130436,-0.8190768834347828,0.24789020730434785,0.34466628586956516,-0.48686608721304336,0.20391807904347817,-0.9270339120000001,-0.9665394111852172,-0.09328611275217394,-0.1988959230173913,-0.430173479,-0.09586445072608694,-0.7492088329565216,-0.06714351439130428,0.6932317904347824,-0.826151313869565,-0.046791409391304314,0.2544142971260869,0.08215227569565219,-0.490459977869565,-0.44290948786521744,-1.0169212453043477,0.4991225071956521,-0.3559508847826086,-0.5400867438000001,-0.8780079914347827,-0.059231656826086894,-0.045800207478260864,0.7038730462304347,0.09065112813043476,0.6580388896521738,-0.00182057031739136,0.1785346534782608,-0.2504005505217391,0.48770503069565224,-0.04198100534782607,0.06690842565217389,0.8735911367826086,-1.2682675148260871,0.37263296060869555,0.05038297008695651,0.19073414778260872,0.14675666558347827,-0.023309609913043476,0.05798402356521734,-0.15738141008695655,-0.013141676652173874,0.0306812646521739,-0.21050770343478267,0.6506532987913044,-0.3485759706521739,-0.9259900604782609,-1.0957651198695653,-0.142634405873913,0.5896565766086956,-0.2891245716326087,-1.0665211523217393,-0.4213754038086957,-0.07943149122608696,0.376590388147826,-0.9631723943043476,0.1052462495217391,-0.08586264493999997,-0.23926977702608698,-0.31259643908695645,-0.09292389895652171,0.139428862826087,0.3061860759565217,0.26151614621739133,-0.14495676173913039,-0.8658045144956523,0.1425763365869565,0.09794517984782604,0.6948917509391307,0.3217038099999999,0.455580002173913,-0.35147288347826094,-0.036568614130434864,-0.036034200086956535,0.30265377943478267,0.16671906510869564,-0.032618227956521785,-0.47759152456521725,0.017839289465217397,-1.4022213278260864,0.30433579854782605,0.0005902326086956621,0.16710478052173905,0.33470893130434776,0.46367815434782617,0.7086288114999996,0.551309158826087,0.28013365989565214,-0.8690169707608696,-0.4134739352173913,-0.4954778209782609,0.9492923406086958,0.28489738752173915,-0.12996691820869563,-0.2547498424782607,0.28249746091304356,-0.48413392134782607,-0.4697826906521739,-0.033427185956521714,-1.1974071958695651,0.4192585094347826,0.5822788032173914,-0.5403764916086956,0.43662623625652175,0.17358410611304342,-0.5000515623478262,0.08390470111304349,-0.17386828180869565,-0.20580286956521743,0.008224243173913084,-0.3513765976391305,0.08063892582608698,-0.5300275191739131,0.25840046078260864,0.06184623491304345,-0.2877801753913043,-0.45365770691304347,0.24340493279565215,0.11177074413043478,-0.21929755296521733,0.4100522101304347,-0.39606699665217393,-0.26665539744347827,-0.2791764116956522,0.8660236586521739,0.309807944304348,0.7445825093665216,0.2515974990869565,-0.23185938876521747,-0.7756733693913043,-0.09760613756521738,-0.8896100367130433,0.21841737456521737,1.2583494377826085,-0.19074288440869563,-0.5154842640434781,0.04923142204347824,-0.5921803382173912,-0.8571737357391302,-0.11557826530434782,-0.31202135934782604,-0.7551130166173914,0.04065134139130433,0.8301329156956523,-0.1299667252173913,0.28513155391304346,0.24514585853695656,0.2131301614782609,-0.3940663628652173,0.26249198102695653,0.3579503047826087,0.7065778442608694,0.6900707488434782,0.24931032804347825,-0.6901574636086957,0.105310052,0.009376204086956533,-0.21437397100000002,0.04245341817391312,0.3406120833652174,0.43748174947826085,0.769665790921739,0.5572523229565217,-0.6062248651304348,0.358348458452174,-0.16532655958695647,0.022966368230434794,0.31066269326086976,-0.2847790766217391,-0.615869726,-0.5837918748913044,-0.5195884544782607,0.06442421734782608,0.589937447021739,0.3686192187826085,-0.8099856557826086,0.49233771765217405,0.02728466913043476,-0.920465670173913,-0.41009789226086957,0.6977237773913043,0.49639413517391306,-0.3675110353043477,-0.525906982195652,-0.0832441023347826,-1.5613285084782604,-0.5285399859130435,-0.8204845030434783,-0.6629403770869565,-0.5068589357826089,0.4434624211608694,0.5482628607826087,-0.39481730539130416,0.4381975688826086,0.48490368304347814,-0.20826626191304348,-0.23617591752173914,0.0878573885869565,-0.19513461528695655,-0.4184339946086957,-0.10638823823478265,0.8704015158695653,0.44111629443478256,-0.4240032364347826,0.3163541977391304,-0.3157630022000001,0.8898710119130434,0.14696201217391303,-0.18130028500000006,-0.20723991606521733,-0.6265019196956522,-0.2623383899000001,0.4742500571130435,-0.3487582870913043,0.0678512154347826,-0.7387719944347827,-0.39768798878260864,-0.8046636326086956,-1.1597795488695652,0.03173580113043478,-0.245068522347826,-0.4749323969217393,0.3173477212608696,0.49199187126086974,0.11948507432608695,0.9014695030869566,0.7510615427826085,0.5602390451391305,0.4860995365217392,0.4259487255652175,0.4741680135652173,-0.05129566114347827,-0.4340811740130436,0.21416559295652168,-0.5649360948695652,-0.322478895826087,-0.1022774034173913,-0.19214667881304348,0.23398594202173909,0.35116484878260873,0.44242453406521737,-0.4832638525217392,-0.5033491441304347,-0.051313220391304315,-0.633555670173913,0.6840069259565218,0.4499265806260869,-0.30872083433478276,0.44915543673913055,0.4301699181304346,-0.0023685954260869264,-0.20274236830434786,-0.10993838436956524,0.03348681686956519,-0.8138030848621739,0.07461401443478255,1.082783224521739,-0.6593018283043477,-0.026577107000000044,0.47031477834782603,0.07111980882608702,0.6514171572608697,0.44015650483913044,-0.15446793004347822,-0.5679359824782609,0.29592926439130435,-0.49335751586956517,-0.18492867539130428,-0.40700962286956527,0.07877880630434775,-0.5086626493173914,-0.3694287757434783,0.0746539598260869,-0.19459257582608686,-1.041504831478261,-0.3063055957826088,0.11754786899999994,-0.327382767173913,-0.12290233221739137,-0.044581624956521744,0.286535806326087,-0.9183358342326089,-0.33543359331304357,0.2763520156521739,0.3554886053913044,-0.3205388139739129
"Software bugs are frustrating. Adopting some simple strategies can help you to avoid them, and fix them when they occur",0.7293813199999999,0.3480170947368421,-0.22993399157894737,-0.0785856204210526,-0.20799592694736843,0.09742014015789474,0.5633599705263157,0.9221675969473687,-0.7133329047368422,-0.7675476701578949,-1.3995104042105266,0.09101095197368418,0.15310166499999997,-0.09347724894736847,0.6253666922105264,-0.5533359168421051,-0.9457165347368418,0.4549192117368421,-0.30717907105263154,-0.02845392636842105,0.2696538568421052,-0.8978625057894736,0.8129938263157894,0.8822762801578946,-0.38297461626315793,0.6456318634210525,-0.27503734552631587,0.1330945436842105,-0.4175160293684211,-0.32076157752631573,-1.1006022326842104,0.5059523563157894,0.1938163863157895,-0.6667991231578947,-0.7540173784842104,0.16340214221052632,0.4881788271789475,0.288721574631579,0.11003770210526315,0.5335620790000001,0.2546046221052632,0.27451355789473686,-0.168253341931579,0.4573550116315791,0.04856784628684213,0.639725323157895,0.6015700444736842,-1.2817345110526313,0.1718652325789473,-0.20152796778947368,0.0334296460526316,-0.15069354868421053,0.1370846060526316,0.5918848781052631,-0.32917946563157896,-0.554583200368421,0.14683352963157895,0.3562740142105264,0.08900313410526317,-0.36005525126315785,-0.004324258105263138,-0.9156182455789474,-0.3093266462631579,0.5198604489473686,-0.4488537078421051,-0.7158086740000001,0.03472617578947369,0.45583856442105264,0.18590847489473683,-0.8217488450000001,0.26882273105263155,0.282419425,-0.19266684468421053,-0.42149760947368425,-0.41156779589473674,0.4732318999999999,-0.8879350382631578,1.0220989173684216,0.02821587178947372,-0.20595590096315794,-1.0432981631578944,0.9389623680526317,1.2851271683157894,0.45667164526315807,0.829659317368421,-0.23081725263157896,0.007345508631578914,-0.04837375526315785,0.20690878315789465,0.5069550418421053,0.5335318614210526,-0.38312672842105266,-0.1670905047157895,-1.3271146468947368,0.17467783952631577,0.2993153015631579,0.2909286426315789,0.696161471736842,0.39884513689473683,0.8011159815789475,1.028686343894737,0.5502055106842105,-0.765306642631579,-0.14601304647368413,-0.24506306368421055,0.7659852624210525,0.07494288815789475,0.40410650494736844,0.4002624987894736,0.1556884352631579,-0.2806716865263158,-0.5151158649473684,0.45275231894736845,-0.9735248524210529,0.6275913057894736,0.4169205921052632,-0.519738922894737,0.3434028072631579,-0.6948039553315789,-0.6025486706315789,-0.0011025479157894828,0.4131853946105262,-0.8940301544210527,-0.8430188528947367,0.10753387926315791,-0.09570701842105267,-0.7485307305263159,0.4060661502105262,0.45506962973684206,-0.3800905647894738,-0.3226169538157895,0.037777025173684205,-0.15532868736842104,-0.7094219104736841,0.4251151155263158,-0.663291575,0.18459845642105266,0.08181029247368428,1.3168677063157892,0.2971631810526316,0.7164631710526315,0.19817471210526316,0.569253506263158,-1.1182710747368418,-0.49962198936842117,-0.17366974471578953,0.15053330757894734,0.09875121842105268,-0.19392379784210523,0.48256775947368413,0.4107306327631579,0.6712866334210525,-0.5095907005263158,0.2889549867894737,-0.18069699,-0.3918702152631579,0.10656732189473683,0.9066232299999999,-0.12057890842105265,0.050269210473684184,0.8960946513684211,0.43284199400000006,-0.8927827010526317,-0.02298627894736842,0.15960534489473685,0.4289821666315789,-0.40790995315789474,0.02979411736842108,0.6011702424736842,-0.10584661315789476,-0.1371816873684211,-0.5814507947368422,0.3912166731578948,0.6225594610526316,0.05228546315789472,0.4376873194736843,0.48605980715789465,0.4222913245263158,0.1023279734210526,-0.01973909842105266,-0.3482396644210526,0.35833106318947366,-0.4789024029473683,-0.37809808989473687,-0.8102767723157894,-0.8717156715789475,0.21648299789473688,0.7506550807894738,-0.03793037463157894,-0.689746708,0.6274715827210529,0.03338742236842103,-0.2573154303157895,0.13437603578947366,0.6833825510526316,0.7469344608421052,-0.6210255872105265,-1.0137791191578949,-0.3403647127368421,-1.3770956391578946,-0.4172191926315789,-0.8833362940526315,-0.25333462347368424,-0.7472566963157895,0.901035749473684,0.1990726786315789,-0.6986852409473684,0.4629230789473684,-0.06451793502631582,0.21240234308421052,0.002942066789473696,-0.26654645626315787,-0.3823738747368421,-0.4626089857894737,-0.43083834,-0.2428230605263159,0.2880696396842105,-0.20008076147368428,-0.04188105473684214,-0.04333629236842106,0.6242315677894735,0.3079327131578948,-0.19827900773684215,-0.15687328342105256,-1.2794820697157896,0.0022083497368421048,0.11428065721052628,-0.09509921894736845,-0.23734916895631583,-0.49209407389473686,-0.5125614265789474,-0.035131115736842106,-1.0189543321052632,0.04461537684210529,0.05036307236842107,-0.7129293499999999,0.12174483115789475,0.200926242368421,-0.33715686910526305,0.7890538711578947,0.6452963502736843,0.9567656046842107,0.706412607,0.2798113077894738,0.7734562353684212,-0.034456009157894756,-0.19096139947368423,-0.431559459131579,-0.3480902982631579,-0.23421527305263157,0.2595159284210527,0.0101749604736842,1.0722610915789474,0.12480200710526314,-0.01102791584210526,-0.44205200284210516,0.7210053936842106,0.4696389224736842,-0.44680741357894727,0.7316616181052633,0.044796680000000005,-0.49862470197368414,0.7161833394736842,0.5934558007368422,0.28122589805263165,0.1840302745263158,-0.11073053505263158,0.8439193255789472,-0.38524114526315784,-0.19709085225789477,0.8447277389473683,0.028955269473684243,0.27732801968947374,0.670133754894737,-0.01933136842105263,1.0844332128947367,0.5085274973684211,-0.18706705678947375,0.3052932442105263,-0.527074048,0.30312870194736846,-0.3258227672105263,-0.1281016893684211,0.07398106202105258,-0.002883080789473758,-0.10369543657894738,0.1985332212105263,-0.6664612289473684,-1.2381660115789477,-0.42632706052631575,0.5399472745263157,-0.29477820652631587,0.15822753331578948,-0.1838970468421052,-0.11532105977368419,-0.18273572052631576,-0.02703065421052633,-0.2048703636842105,0.6496909343105264,-0.11176787873684219
"Please read the rules of the competition carefully first. Then Save a version of your notebook running from Kaggle Environment. Make sure to save the output while making the version, by selecting Always save output from Advanced Settings of the Save Version Console. 
After a version is created successfully, go to the competition, click on Submit Prediction. Select the version of the notebook along with the saved output. Boom! You are ready for the evaluation.",0.10287900881632651,0.013324474183673485,0.10947133585714286,-0.31170603975510214,0.35888967028571434,-0.34390112020408165,-0.05399226078367345,0.29178788239591824,-0.16485661875510205,-0.26399375253061225,-1.440906733265306,0.26873782509877553,-0.29061137010204074,-0.2231065993265306,0.8125267194285714,-0.5569070731020409,-0.8837257954816327,-0.20204715597959186,-0.28341758775510206,0.10433618675510205,-0.12904038693877554,-0.3294183620816329,0.5320291691836733,1.1743408634285712,-0.26003285275510213,0.6114818008836735,-0.06472203546938772,-0.04589652150816325,-0.020999770624489798,0.04333690959183677,-0.5492676559959184,0.43032317722448993,-0.26847831908163267,-0.3414130829387754,-0.6679969296938776,0.35149059632653057,-0.34670861657755103,0.21195283745102034,-0.5720565257142857,1.0125625197959187,-0.0955658284897959,0.018123029993877608,-0.0038531882714285966,0.6984567610408167,-0.059371901059183683,0.6942292736734695,1.069578244102041,-1.141686383591837,0.2739615474897958,-0.31299418238775517,0.09014960559183666,-0.006058813142857159,0.38284450189795916,0.19768781792653062,-0.10093912832653058,-0.3581747456428571,-0.06326845661632657,0.5696263054840819,0.2398679184285714,0.16605554518367346,-0.6121471296530612,-0.7245081838367345,-0.28662245346632653,0.33946583469387764,0.15708038266122445,-0.8874609972448981,0.38919485175510216,-0.430536931755102,0.7011513960408161,-0.3149139065306123,0.41389069712244914,0.14979649632653064,-0.15842348867346934,-0.4771319782244897,-0.09321791540204077,-0.0321845926938775,-0.3523522685306122,0.18564380744897968,-0.13174981097959182,-0.3903329464142859,-0.39347119891836735,-0.200877435622449,1.05437837877551,0.5820421605408164,0.9867061680408162,-0.1912365262857143,0.09050864178163263,0.3775864669387755,0.44406799218367343,0.08222181016326531,0.12499292938775519,-0.3536115152448979,0.06441889087755104,-1.0913160531836736,0.09987069767346944,0.21064162130612243,0.2081439891836735,0.9632171965306128,0.4694697983673471,1.0241831981428573,0.6380736205918371,0.12721676644897964,-0.4648419733061225,-0.4562006026122448,-0.32522391392857136,0.8261492166122447,-0.1789758853265306,-0.11130417081632656,-0.7241029863469387,-0.1541681169795919,-0.15281870412244897,-0.5403008212448982,0.4059598124489795,-1.0870384104081634,0.4460389904081632,0.37203687095918375,-0.5539707710408165,0.5254446973469387,-0.2309317495102041,-0.5038606179081633,0.6392002113183676,-0.14264174442040814,-0.6444959251428571,0.4298187440816326,0.20515362826530617,-0.1875311627285714,-0.5428486361510203,0.13940236644897958,0.2524362736367347,-0.09022973336918366,-0.4569536289591836,0.21921531746938774,-0.15590376925306124,-0.5567132744489796,0.40748272906122457,-0.23463703828571442,-0.2922391849591837,-0.644674976877551,1.0273231113469383,0.07227680244897956,0.9689388622653059,-0.06180998069387759,-0.3996411921632652,-1.355953456367347,-0.20481720095918368,-0.25151317359183667,0.21058665174693883,0.3985231771632653,-0.317399736322449,0.08653791006122442,0.1634691735040816,0.5894421452448981,-0.09707069275510209,0.1783389853285714,-0.09890010340816328,-0.4550151501632653,0.596657080918367,0.7840932088775511,0.1542984508163265,0.16758208197959185,0.24769037147244907,0.37645869710204083,-0.3577492078571429,-0.2606617223061225,0.06329026464489801,0.46399067102040803,0.12321826161224494,0.392771712755102,-0.23213900432653056,-0.1548816672653061,-0.12125268540816327,-0.5396857525183675,0.7049243464081636,0.379205855877551,-0.11416796157142856,0.9087568117040816,0.3030607438775511,-0.41083750176040823,0.48595328963265305,-0.3779297328122449,-0.48189913083673463,0.059059480000000046,-0.5288484705697553,-0.13715709997959186,-0.5761628212448979,-0.7826964957755104,-0.003801260204081653,0.6383729935714286,0.24907866936734702,-0.859640307061225,0.5267724808367348,0.017009575408163276,-0.5680381834489795,-0.3170085473469386,1.126608684571428,0.8638703769999998,-0.05840158191836735,-0.7614898995714289,-0.05570946268163261,-1.4632785033469389,-0.2769547534489796,-1.075187070816326,-0.5419130368367346,-0.5358461474489796,0.7471012786877551,0.3173398685714286,-0.7228883201020407,0.5662742162551022,0.2743833403530613,0.03930390367346939,0.27762543965306125,0.20359326906122446,-0.2523377908979591,-0.5565349560408162,-0.041153150163265366,0.7564252653061226,0.4517230550204082,-0.09548625985714299,0.10648711102040814,-0.07948046386122451,0.2539105560265305,0.17581242794489801,0.06471957771428574,-0.7018337268367346,-1.0317850306938774,0.1369108887755103,-0.3704797736122451,-0.3139084354897959,-0.027418635289795913,-0.8359930282653062,-0.14701643773469378,-0.9241980472244896,-0.9917532127142855,-0.27159319693877554,-0.5699802092040818,-0.5132439601224489,0.5819174364693879,0.47228231204081644,-0.655458071,0.9568199564081634,-0.04812110920408163,0.6091285237551018,0.37082812628571415,-0.19617813734693876,0.020108778163265312,-0.31730400087755095,-0.20598116404081623,-0.37339411822040836,-0.6573340404693877,-0.23268345840816324,0.4233815190816325,0.4252344915918367,0.6715182210612245,0.3602536542387755,0.0044055802081632385,0.006096866551020415,0.47782592334693874,0.08973309340816323,-0.6200180708367347,0.5613121597959183,-0.2549316536530612,-0.2715019606530613,0.8635850629795917,0.19058890985714272,0.3590902708163264,-0.04388031311571426,0.30501943159183675,0.6817735628163266,-0.31613035475510204,-0.017437937479591836,1.0400784923265307,-0.6916707539795919,0.25171203428571426,0.4659821742244898,-0.2851263372653061,0.882450334097959,0.18296494087755105,-0.5260521839183673,0.09431017210204078,0.065426100755102,0.20228383197959182,-0.29647301585714286,-0.7680507166326527,0.08515567202040815,0.08265537056530609,0.3221011731836735,0.12723628130612244,-0.5214013974693876,-0.8113221907755096,-0.36909799081632644,0.5042080739387756,-0.2240585264285714,0.005118073061224482,-0.02179256500816328,-0.09923239059183664,-0.5489841252244897,-0.229051523510204,-0.3133550157551021,0.03981693135918362,-0.12570952057142853
"Log Transform is simplest way to enhance visualization of comparable data.
Consider below dataset
Company    Revenue
0    Tesla   31.0
1    Uber    11.0
2    Amazon  386.0
3    Jindal Steels   4.7
4    Axis bank   5.6
5    Vedanta 11.3
Code for bar chart
df.plot(x='Company', y='Revenue', kind='bar')
Here Revenue of Amazon is far higher than average Revenue.
Below link show its hard to compare Jindal, Axis Bank

By transforming it with log transform we can see significant difference in Jindal and Axis Bank
Code for bar chart
df.plot(x='Company', y='Revenue', kind='bar', logy=True)
Which can be seen below

